accession,0,1,2,3,4,5,6,7,8,9,10,11,12,13,14,15,16,17,18,19,20,21,22,23,24,25,26,27,28,29,30,31,32,33,34,35,36,37,38,39,40,41,42,43,44,45,46,47,48,49,50,51,52,53,54,55,56,57,58,59,60,61,62,63,64,65,66,67,68,69,70,71,72,73,74,75,76,77,78,79,80,81,82,83,84,85,86,87,88,89,90,91,92,93,94,95,96,97,98,99,100,101,102,103,104,105,106,107,108,109,110,111,112,113,114,115,116,117,118,119,120,121,122,123,124,125,126,127,128,129,130,131,132,133,134,135,136,137,138,139,140,141,142,143,144,145,146,147,148,149,150,151,152,153,154,155,156,157,158,159,160,161,162,163,164,165,166,167,168,169,170,171,172,173,174,175,176,177,178,179,180,181,182,183,184,185,186,187,188,189,190,191,192,193,194,195,196,197,198,199,200,201,202,203,204,205,206,207,208,209,210,211,212,213,214,215,216,217,218,219,220,221,222,223,224,225,226,227,228,229,230,231,232,233,234,235,236,237,238,239,240,241,242,243,244,245,246,247,248,249,250,251,252,253,254,255,256,257,258,259,260,261,262,263,264,265,266,267,268,269,270,271,272,273,274,275,276,277,278,279,280,281,282,283,284,285,286,287,288,289,290,291,292,293,294,295,296,297,298,299,300,301,302,303,304,305,306,307,308,309,310,311,312,313,314,315,316,317,318,319,320,321,322,323,324,325,326,327,328,329,330,331,332,333,334,335,336,337,338,339,340,341,342,343,344,345,346,347,348,349,350,351,352,353,354,355,356,357,358,359,360,361,362,363,364,365,366,367,368,369,370,371,372,373,374,375,376,377,378,379,380,381,382,383,384,385,386,387,388,389,390,391,392,393,394,395,396,397,398,399,400,401,402,403,404,405,406,407,408,409,410,411,412,413,414,415,416,417,418,419,420,421,422,423,424,425,426,427,428,429,430,431,432,433,434,435,436,437,438,439,440,441,442,443,444,445,446,447,448,449,450,451,452,453,454,455,456,457,458,459,460,461,462,463,464,465,466,467,468,469,470,471,472,473,474,475,476,477,478,479,480,481,482,483,484,485,486,487,488,489,490,491,492,493,494,495,496,497,498,499,500,501,502,503,504,505,506,507,508,509,510,511,512,513,514,515,516,517,518,519,520,521,522,523,524,525,526,527,528,529,530,531,532,533,534,535,536,537,538,539,540,541,542,543,544,545,546,547,548,549,550,551,552,553,554,555,556,557,558,559,560,561,562,563,564,565,566,567,568,569,570,571,572,573,574,575,576,577,578,579,580,581,582,583,584,585,586,587,588,589,590,591,592,593,594,595,596,597,598,599,600,601,602,603,604,605,606,607,608,609,610,611,612,613,614,615,616,617,618,619,620,621,622,623,624,625,626,627,628,629,630,631,632,633,634,635,636,637,638,639,640,641,642,643,644,645,646,647,648,649,650,651,652,653,654,655,656,657,658,659,660,661,662,663,664,665,666,667,668,669,670,671,672,673,674,675,676,677,678,679,680,681,682,683,684,685,686,687,688,689,690,691,692,693,694,695,696,697,698,699,700,701,702,703,704,705,706,707,708,709,710,711,712,713,714,715,716,717,718,719,720,721,722,723,724,725,726,727,728,729,730,731,732,733,734,735,736,737,738,739,740,741,742,743,744,745,746,747,748,749,750,751,752,753,754,755,756,757,758,759,760,761,762,763,764,765,766,767,768,769,770,771,772,773,774,775,776,777,778,779,780,781,782,783,784,785,786,787,788,789,790,791,792,793,794,795,796,797,798,799,800,801,802,803,804,805,806,807,808,809,810,811,812,813,814,815,816,817,818,819,820,821,822,823,824,825,826,827,828,829,830,831,832,833,834,835,836,837,838,839,840,841,842,843,844,845,846,847,848,849,850,851,852,853,854,855,856,857,858,859,860,861,862,863,864,865,866,867,868,869,870,871,872,873,874,875,876,877,878,879,880,881,882,883,884,885,886,887,888,889,890,891,892,893,894,895,896,897,898,899,900,901,902,903,904,905,906,907,908,909,910,911,912,913,914,915,916,917,918,919,920,921,922,923,924,925,926,927,928,929,930,931,932,933,934,935,936,937,938,939,940,941,942,943,944,945,946,947,948,949,950,951,952,953,954,955,956,957,958,959,960,961,962,963,964,965,966,967,968,969,970,971,972,973,974,975,976,977,978,979,980,981,982,983,984,985,986,987,988,989,990,991,992,993,994,995,996,997,998,999,1000,1001,1002,1003,1004,1005,1006,1007,1008,1009,1010,1011,1012,1013,1014,1015,1016,1017,1018,1019,1020,1021,1022,1023,1024,1025,1026,1027,1028,1029,1030,1031,1032,1033,1034,1035,1036,1037,1038,1039,1040,1041,1042,1043,1044,1045,1046,1047,1048,1049,1050,1051,1052,1053,1054,1055,1056,1057,1058,1059,1060,1061,1062,1063,1064,1065,1066,1067,1068,1069,1070,1071,1072,1073,1074,1075,1076,1077,1078,1079,1080,1081,1082,1083,1084,1085,1086,1087,1088,1089,1090,1091,1092,1093,1094,1095,1096,1097,1098,1099,1100,1101,1102,1103,1104,1105,1106,1107,1108,1109,1110,1111,1112,1113,1114,1115,1116,1117,1118,1119,1120,1121,1122,1123,1124,1125,1126,1127,1128,1129,1130,1131,1132,1133,1134,1135,1136,1137,1138,1139,1140,1141,1142,1143,1144,1145,1146,1147,1148,1149,1150,1151,1152,1153,1154,1155,1156,1157,1158,1159,1160,1161,1162,1163,1164,1165,1166,1167,1168,1169,1170,1171,1172,1173,1174,1175,1176,1177,1178,1179,1180,1181,1182,1183,1184,1185,1186,1187,1188,1189,1190,1191,1192,1193,1194,1195,1196,1197,1198,1199,1200,1201,1202,1203,1204,1205,1206,1207,1208,1209,1210,1211,1212,1213,1214,1215,1216,1217,1218,1219,1220,1221,1222,1223,1224,1225,1226,1227,1228,1229,1230,1231,1232,1233,1234,1235,1236,1237,1238,1239,1240,1241,1242,1243,1244,1245,1246,1247,1248,1249,1250,1251,1252,1253,1254,1255,1256,1257,1258,1259,1260,1261,1262,1263,1264,1265,1266,1267,1268,1269,1270,1271,1272,1273,1274,1275,1276,1277,1278,1279
HGV2C_18,0.0038624532,-0.056084014,-0.02089149,0.053801227,-0.087807834,-0.012216673,0.020262403,-0.052532755,-0.020951495,0.055005394,-0.014293653,-0.015720585,0.11436625,0.102436505,-0.024662707,0.08261655,0.05867075,0.056191426,-0.012174207,-0.028927734,0.06365236,-0.04808689,0.04136818,0.009704166,-0.014697498,0.017423682,0.0057285405,-0.014170021,0.0006810572,-0.13473567,-0.010916192,0.0073337606,0.083599046,0.034894396,0.010436082,0.019459425,-0.021842157,-0.004948272,-0.025877124,-0.010255444,0.03467176,0.03724662,0.13953398,0.016803311,-0.030835036,-0.06864245,-0.054462038,0.04031352,0.0019114597,-0.05562041,-0.04901131,0.03989023,0.057439648,0.036481403,0.030946355,0.011467297,0.0037857457,0.022247294,0.025075277,0.018959716,-0.13490787,-0.0054115625,-0.058902513,0.06982496,-0.0075847222,0.03414317,0.07616268,-0.07230067,0.083310455,-0.047169585,0.003884434,-0.06627314,-0.0054190718,-0.06939999,0.011104895,-0.016614895,0.031236822,0.16432492,0.026331404,0.059595354,-0.00416742,0.014160233,-0.07066258,0.11080694,-0.018617174,-0.0062401188,0.061437804,0.058221042,0.10441823,0.008017796,0.06881102,0.06945218,0.010034852,-0.027583426,-0.03485889,-0.038993917,0.0030742667,0.019932821,0.083956376,0.03540204,0.050311454,-0.024410296,-0.0481383,-0.05351106,-0.019066881,-0.041900903,-0.039519697,0.012864347,-0.04848645,-0.025814489,-0.0015868216,-0.009790527,-0.027493343,0.027600426,-0.015948612,0.013809405,-0.1434383,-0.07560684,-0.00995416,0.073211715,-0.033278186,-0.0013171835,0.062354464,-0.0039724135,-0.021794746,-0.059064038,0.055022918,0.017665755,-0.08359204,0.054649867,-0.01643308,-0.014425123,-0.028403785,-0.05130781,-5.2921103e-05,0.094000086,0.010409891,0.10655811,0.021446489,-0.037752956,0.05647,-0.087101564,-0.029572183,-0.0017514834,0.05146558,0.19556935,-0.07083058,0.049697828,-0.04844114,0.0199821,0.08757569,-0.012912248,0.015738357,0.020093197,0.02147432,-0.13554715,0.070447154,0.07921722,0.032656454,0.039266933,-0.043337546,0.09420523,0.05820995,-0.06274188,-0.006735003,0.01635335,0.090478875,0.022736344,0.08754642,0.00397148,-0.016807865,0.004730654,0.08177402,-0.05546668,-0.056920607,-0.021991068,0.001944083,0.056011356,0.0720517,-0.008893337,0.021842461,-0.0066743433,0.018342579,0.017552143,-0.00018420033,-0.046573196,-0.06583836,-0.008365397,-0.0668091,-0.035062622,0.0141581325,0.095038846,0.048951972,-0.05713026,0.12520555,0.03549565,0.01864427,0.042049162,-0.065801464,-0.02201813,0.052140586,0.03589455,-0.076374665,0.040639114,-0.014626972,0.017051598,-0.001265371,-0.03155179,-0.12650858,-0.14683633,0.08856726,0.02595275,0.027702903,0.06590191,-0.06511833,-0.016331453,0.031716507,0.009807983,0.10596371,0.010047838,-0.019732941,-0.05439611,0.0447638,-0.055342615,-0.01338142,-0.07084873,-0.16713114,0.044380028,-0.13728005,0.06614453,0.08978921,0.011051787,-0.07668931,0.043925952,-1.1254758,0.032390963,0.18847688,0.026101306,-0.060488433,-0.07351242,-0.018670449,0.060090285,-0.022793269,0.041197993,0.018097835,0.032903384,0.048720513,0.024749776,0.02054375,0.028614644,-0.12402068,-0.01210313,-0.092030995,-0.028661678,-0.01748827,0.057738572,-0.0071547553,-0.0026587383,-0.0309551,-0.17050686,0.093685895,0.026360119,0.042451344,0.08000873,-0.037881393,-0.050385833,-0.07230665,-0.07469941,-0.0022132776,-0.01028065,-0.033733584,0.05817298,-0.0076481896,0.017530443,0.01687994,-0.017169144,0.044115487,0.031261697,0.017997855,-0.036308933,0.0017005581,0.004892394,0.110571444,0.01007415,0.015124127,-0.12931548,0.027107975,0.030793194,0.018676406,0.06280148,0.0031528648,-0.00054703956,-0.06528453,-0.09200858,-0.033835612,-0.015926424,-0.010846244,0.063391246,0.088806525,0.0015129751,0.100633845,0.008701478,-0.08370311,0.05168425,0.021350304,0.026836833,-0.0071381615,0.05270686,-0.0043570567,-0.07115929,-0.021507293,0.0106076915,0.024199791,-0.02079554,0.003383262,0.021866864,-0.039479114,-0.03668364,-0.009519227,-0.024569213,0.014614046,-0.0039118356,-0.031842835,-0.00772974,-0.038891025,0.03604923,-0.00051813235,0.022085508,-0.044493835,-0.03354474,-0.030979106,-0.02222767,0.10427406,0.03104721,-0.116428435,0.005578614,0.13529482,-0.00045779924,0.047675855,0.0054418324,0.031844787,-0.05004493,-0.07772151,-0.014736028,-0.09265401,-0.062265962,-0.04417766,0.022390153,-0.020806815,-0.070763454,0.05761955,-0.046109192,0.020331588,-0.03203956,0.09987024,-0.0073574088,-0.018683285,-0.004925507,-0.046958335,0.010386967,-0.034012567,-0.0046207993,-0.022871362,0.04086808,-0.014701197,0.022596842,0.10677471,-0.027178043,0.011191729,-0.0662166,0.09805332,0.09793249,-0.01970613,-0.030431222,0.04159029,0.07671334,0.011120305,0.108872116,0.09404586,0.051405948,-0.008009838,-0.12194768,-0.06299708,0.007277829,0.010725688,-0.026388526,-0.045188293,-0.0028325338,0.01716174,0.041063838,-0.004090176,-0.009995393,0.026517102,0.07833658,-0.04669877,-0.09033914,0.082894005,-0.00334884,0.012354055,-0.011068459,-0.0074118413,-0.0016603373,-0.04796155,0.064280465,0.0043443227,0.0310954,0.026681522,-0.0047820755,0.021814195,-0.11313504,0.065008625,-0.0014939717,0.058365934,-0.06369823,0.0013781622,0.031809155,0.113962054,0.13000093,0.04943334,0.02628459,-0.04356448,0.022428058,-0.0080210995,0.10881338,-0.007236266,-0.019486353,0.01857337,0.04049125,0.06481883,0.022915702,-0.029826555,0.082155995,0.013957428,0.0046802233,0.02500473,0.029159334,-0.003887719,-0.009463744,-0.030114925,0.008580585,0.01869926,0.036732204,0.032498747,-0.10523341,0.042958505,-0.029918808,0.06683199,-0.032167457,0.047639675,0.027748853,0.052537583,-0.019150356,-0.016506143,-0.007108107,0.043909144,0.016461195,0.025242016,0.016472828,-0.02918076,0.16231874,0.0577415,0.009234245,0.028984895,-0.07005958,0.062044363,-0.030450005,0.026722431,0.048613213,0.07911565,0.08084582,-0.049101036,-0.020863308,0.07976545,-0.022885112,0.036028005,-0.05530504,-0.04379097,0.004507955,-0.05630573,-0.03680811,-0.04014921,-0.035205428,-0.015773727,-0.0065896385,0.059757996,-0.03583473,0.01029607,0.00434764,0.052720033,0.03741493,-0.022680707,-0.034629147,-0.08097652,0.0062210932,-0.021386843,0.07342789,-0.01137877,-0.03762313,-0.049233373,-0.03113341,-0.070764095,-0.08236952,-0.09425083,-0.009627152,-0.061428964,0.0427046,0.0161816,0.11364313,-0.026035655,0.0032324505,0.042322986,0.005558635,0.014806973,-0.05540231,0.0035308574,-0.030481419,0.009149337,-0.08415315,0.018493319,-0.072823636,0.013495332,-0.042965762,-0.024740465,0.03027072,-0.038601436,-0.132798,0.03598725,0.02906828,-0.0008536497,-0.040333446,0.013776718,0.100145176,0.0015721361,-0.02921248,0.013255502,-0.01369721,0.04921908,-0.04625598,-0.17202467,0.042813845,-0.054235447,-0.017761016,-0.006990443,0.1190626,-0.04989623,-0.03269159,0.0477573,-0.039757572,0.0033419784,-0.0011035458,0.0028415923,0.01641829,-0.12549846,0.15067373,-0.017576784,-0.060167093,-0.17986588,-0.032356508,-0.0012111913,0.013753344,0.01307632,0.025740245,0.02551336,-0.013161823,0.17712246,-0.052247602,0.059328258,0.063720845,0.087892495,0.0257435,0.014589131,0.1551755,-0.018193627,0.011360885,-0.036516167,0.11662662,0.01564467,0.061806537,0.04462678,-0.022019733,0.0320794,-0.04581223,0.008407107,0.10088358,0.008229752,0.06587384,0.020868372,0.0072337403,-0.04598563,0.09388729,0.021489248,-0.053464394,0.06954728,0.07084653,0.09740839,0.054805957,-0.037936516,0.0012183501,0.0645795,-0.06544419,0.017485272,0.0010822753,0.022009877,0.016320337,0.01332397,0.08710168,-0.01539818,-0.0021531053,-0.02635144,-0.0007243451,0.010938085,0.00867199,-0.037564762,-0.04193203,0.01355882,-0.002012025,0.00064023753,0.0037367214,0.050079137,0.006652841,-0.00891024,0.012274936,-0.022918751,-0.033282515,-0.0058336193,0.09937604,0.04114369,0.0049123834,0.08057007,-0.02170316,0.002707348,0.026830858,-0.0023734993,0.0010829754,0.031196365,0.009824058,0.0009222276,0.0012666739,-0.037323587,-0.04489269,-0.12882103,-0.04419944,0.0420753,-0.0024423208,0.058364827,-0.055193644,0.04618282,-0.015452035,-0.04048897,0.026209092,-0.024037166,0.18465519,0.049447335,-0.03460319,0.01959214,0.00694521,0.027266826,0.076398455,-0.080864035,0.13728005,-0.012900415,0.00826391,-0.050792255,0.048021115,0.0662515,-0.027332667,-0.017769344,0.007574727,0.04389152,0.025284922,0.016028063,-0.074399576,0.017831657,0.020522686,0.018399592,-0.010831077,-0.01588508,-0.0130424155,0.0029152466,-0.019029668,0.02949873,-0.0065179854,-0.06452794,0.16177459,0.07135244,-0.07928574,0.008992043,0.08292725,0.002706658,0.0026930426,-0.0970857,-0.0011926884,-0.027268818,-0.0040108636,0.0561337,0.020672241,-0.04505327,-0.080416605,0.08188183,-0.08278832,0.13116716,0.04105359,0.035052013,0.0010422453,0.03264348,-0.0008011002,0.08747002,-0.03413536,0.013183685,0.09792362,-0.007824482,-0.08754539,-0.0916332,-0.0038637116,0.0412612,-0.010898111,0.0065847365,0.067445055,-0.018865798,0.05927869,0.028385907,0.017908668,0.026854092,0.025513778,-0.0134818135,-0.08929378,0.023028933,0.010275271,0.0048362515,0.036222216,-0.057857968,-0.0031347037,0.07357754,0.040118333,-0.0060334117,0.058490016,0.054762788,0.0038097675,-0.039044008,-0.062139906,-0.03191018,0.069804445,-0.019647244,-0.02298565,-0.031371243,-0.059495337,0.026662448,-0.042183585,0.06619023,0.09984907,0.015053493,0.083873495,0.067365274,-0.05383693,-0.036903333,-0.013484566,0.071072906,0.015041294,0.014541531,-0.040808823,-0.10585538,0.07825323,0.08030467,-0.007808122,-0.06762417,0.038055785,-0.030163279,-0.030182416,0.013180869,0.04468336,0.048169933,-0.04863884,0.014791693,-0.0073984666,-0.06659632,0.09284194,0.0072426586,-0.02541073,0.0443803,-0.028365651,-0.026128013,0.03474199,-0.03982512,-0.0146838,-0.036138166,-0.02150529,0.19909275,-0.0847365,0.058249105,0.067001656,0.032007255,0.028127138,-0.017892081,0.13172923,-0.07153438,0.023132367,0.029742021,-0.032448605,-0.10054258,-0.0018561542,0.0011369694,0.05441888,0.010514372,-0.049586512,0.031330097,-0.03477975,0.0017513533,-0.03416507,-0.0053120865,-0.072021574,0.05225616,-0.057281725,0.058976848,-0.02579227,0.008089008,-0.013160959,0.007194627,-0.015955774,0.053247828,-0.03481244,0.029202,0.039500065,-0.10280365,0.023625607,-0.07274933,0.0070217266,0.025211517,-0.078213975,0.020452013,-0.013244495,-0.08399421,-0.09348273,-0.061265238,0.03757404,0.06667676,0.029403633,0.1209389,0.023903659,-0.021238726,-0.020863231,-0.11779241,-0.037359055,0.03495521,0.058490098,0.031668343,0.05810969,-0.06655029,-0.017478174,0.057781827,-0.034894805,0.08563694,-0.1036217,0.021702643,-0.012296474,-0.025143618,0.003964986,0.05458536,0.08272447,0.039948296,-0.024920996,0.0271543,0.021387067,0.0014059065,-0.026723605,-0.04006863,0.024063213,0.049578916,-0.07275782,0.024027312,0.055301845,-0.0017061562,0.019252008,0.12260838,-0.012937099,0.027466577,0.019961545,-0.12246098,-0.03403092,0.049485255,-0.053789437,0.082340136,-0.019816494,0.041282304,-0.03908435,-0.037106715,-0.06900653,-0.02169557,-0.03442468,0.001371471,0.020261567,-0.007896846,0.02403481,0.06372534,0.14976862,-0.0787876,0.02635258,-0.016657311,-0.07543047,-0.05484178,0.06710063,-0.0055997083,0.030026432,0.028387194,0.0070151486,0.016242478,0.03251625,-0.016553333,0.045012057,0.009467019,-0.053692292,-0.053513903,0.042328686,-0.06708746,-0.082428776,0.01599586,-0.006772673,-0.010888072,0.023088017,-0.0068109604,0.059162587,0.10982367,-0.040628165,0.02879799,0.0678329,-0.076256365,-0.01439254,0.024631143,-0.037393786,0.016112437,0.0019467573,0.07763294,-0.047398932,-0.0792021,-0.09946805,0.015532352,-0.021826614,0.1298207,0.15880804,0.055465233,0.00581738,0.018476149,-0.016006548,0.10443636,0.061206322,-0.027370984,-0.019357232,0.05039107,-0.0024895158,-0.04332448,-0.021868657,0.10598345,2.6574731e-05,0.02178305,-0.0037700713,-0.03833814,-0.07644047,-0.07458766,-0.0341858,-0.03689505,0.052314263,0.0056565776,0.08714301,-0.050159704,-0.023709016,-0.0004778536,-0.008118382,-0.022306442,0.07358142,0.054801367,-0.025187736,-0.045728322,0.09829014,0.048328914,0.028304916,0.009910249,0.040370923,-0.006760002,-0.02773628,0.050193645,-0.032966428,-0.06149132,-0.031827904,-0.03568976,-0.02906392,-0.011921953,0.07687899,-0.04914085,-0.016365107,-0.03728592,0.048386,0.0124362465,-0.030293968,0.032602657,-0.012397692,-0.05999294,0.00393131,-0.017136086,-0.013827233,0.08566757,0.010653171,-0.055488788,0.002488867,-0.027220821,-0.029322023,0.0086959135,0.045757208,-0.051396705,-0.0022573946,-0.034265812,-0.033549182,0.06997662,-0.030425336,0.012721824,0.02632903,0.04198902,0.05623732,-0.015858483,0.026370192,0.020760365,0.08125398,-0.07549261,0.120398305,0.060627572,0.036908336,0.040646654,-0.025242805,-0.083402015,-0.026411485,0.01080019,-0.03712363,-0.010391588,-0.022272062,0.022245958,0.0017739752,-0.0056001716,0.14884233,0.01655822,0.005092019,0.0009925235,0.044166617,-0.035820786,0.0039355676,0.031248724,0.010313308,-0.031449564,0.01175173,0.011784221,0.054313015,0.011198269,-0.071074985,-0.062046718,-0.040525213,0.06056282,-0.02656529,-0.05078411,0.030587947,-0.0029773433,0.07993634,-0.05893985,-0.1082633,-0.06435608,0.023297708,-0.034858253,0.09853035,-0.043853916,0.0033404585,-0.014383418,0.08614843,-0.011259399,-0.028936679,-0.02211059,-0.04706867,0.039108377,-0.025782388,0.0796953,-0.011067857,0.013348697,0.062125206,-0.09049546,0.08776371,0.06558194,0.0056475014,-0.08140837,-0.11411977,0.08840452,-0.022967037,-0.047007006,0.06341516,0.08353371,0.008105602,-0.0383058,0.024236877,0.06863916,-0.15578428,0.043887857,0.02856662,-0.037093595,-0.082050666,0.07644179,0.07224388,-0.005543998,0.0018285466,0.04078137,-0.1120191,-0.055978514,0.0023568706,0.032332443,0.06300085,0.0008791249,-0.04975134,-0.00062620174,0.10898074,-0.05626566,-0.049347743,0.037200935,0.037782524,0.032690875,0.04647372,0.018728454,-0.008403609,0.08092971,-0.075928144,-0.024899831,-0.13199446,0.029491732,-0.0056746993,-0.068151906,0.049569994,-0.024569146,0.007631025,0.0003496729,-0.08459292,-0.016380638,0.082280405,-0.057059634,-0.10730388,-0.00021667554,0.014868259,-0.005059302,0.02542599,-0.026565228,0.03361371,-0.04098738,0.010216333,-0.103193596,0.06537257,0.057211835,0.0022338585,-0.037598148,0.03525024,0.0060499916,0.00931607,0.020786842,-0.036884602,-0.0013705324,-0.01873931,-0.050267916,-0.009017678,-0.07808134,0.06864135,-6.168825,-0.07045688,0.028354505,-0.014979936,-0.0042053186,-0.02235656,-0.04358489,-0.061327696,0.10901395,-0.031118905,0.07686235,-0.006828551,0.042922806,-0.03518631,-0.008968706,-0.003615655,0.02617309,0.016509503,-0.016494725,0.07005125,0.049772974,-0.014435835,-0.004013692,0.13072512,0.007285784,-0.00920175,0.031188,0.019016664,0.04846946,0.13042529,0.024361584,0.015046241,-0.056350835,0.0891242,0.04552048,0.14210494,0.057024073,-0.0062491377,0.17957726,-0.06145966,0.039296888,-0.088178426,-0.013992943,0.0013678189,0.012313093,0.0059661386,-0.055507023,-0.07574043,0.025020814,0.03357953,0.030341614,-0.0049175723,-0.012361438,-0.08534835,0.06865165,-0.011427825,-0.027585274,0.11933304,0.057346802,0.07288872,0.07015767,0.015414594,-0.051855028,0.043860115,0.010276399,-0.028657759,-0.056177497,-0.007830806,0.013130104,-0.037362315,0.04735525,0.02492361,-0.0074137584,0.08413701,0.028273892,-0.022716064,-0.041272566,-0.07385924,0.13409737,0.017891698,-0.106655255,0.07023085,-0.051728357,0.07421745,0.08630623,-0.033304755,0.049560186,0.09220838,-0.030931478,0.073085666,0.113183856,0.09635591,-0.009775711,-0.00064012816,0.027341817,-0.019197082,-0.049275763,0.03929519,0.033011787,0.04763943,0.029255312,0.03770837,-0.020357687,0.058023375,0.022451807,-0.008001343,-0.033813052,0.037746664,0.021075968,0.066928476,0.022946345,-0.057812653,-0.058589768,0.005237812,-0.029417837,0.0353682,0.07629271,-0.120339096,-0.020335604,0.06805109
CU448,0.00071796763,-0.05861088,-0.013219573,0.058948055,-0.083587565,-0.0073172525,0.011647926,-0.06472472,-0.013648983,0.06639607,-0.017718462,-0.0186753,0.1193071,0.10797128,-0.027361887,0.078286946,0.043322474,0.053587433,-0.004672273,-0.043011717,0.062512696,-0.060514253,0.04773846,0.015805304,-0.0037171792,0.0049896794,0.002839451,-0.0169201,-1.829775e-06,-0.13152432,-0.0138936285,0.009480675,0.087150216,0.043606374,-0.0010771203,0.0096184295,-0.026304357,-0.0137568535,-0.0169654,-0.010050867,0.043871354,0.041338414,0.1316041,0.02023735,-0.041410822,-0.07046667,-0.08791651,0.030792065,0.0033811077,-0.052404277,-0.036360104,0.038518496,0.059063,0.044114903,0.023753786,-0.0010511577,0.0069407797,0.026737392,0.03592686,0.011889205,-0.13655452,-0.0035879058,-0.053691793,0.06767345,-0.011164067,0.029624399,0.08336,-0.05946991,0.072069705,-0.04023847,-0.007039151,-0.0672923,-0.015473741,-0.07189289,0.0071752877,-0.022621691,0.017498648,0.1597379,0.023904579,0.050708074,-0.009526052,0.014266453,-0.07769324,0.10289807,-0.028151795,0.0030154295,0.085279964,0.053681113,0.105659,0.025167068,0.07085013,0.07487335,0.009252784,-0.04579954,-0.051667996,-0.035510704,-0.0006341974,0.029992672,0.08155442,0.037357975,0.0562533,-0.023892757,-0.03289278,-0.060544237,-0.010339729,-0.038107723,-0.027070599,0.017770233,-0.0418113,-0.029766548,-0.019113231,0.00046575026,-0.025270991,0.027919697,-0.031148266,0.016114648,-0.15469371,-0.08182182,0.0019201636,0.09029004,-0.042320035,-0.00048519665,0.06488875,-0.0069839805,-0.031075975,-0.066658825,0.05387806,0.0003204499,-0.085932165,0.050175108,-0.022226783,-0.033142067,-0.031465635,-0.046734642,0.003360248,0.089569464,0.0031282834,0.11321769,0.030685874,-0.03914188,0.045043327,-0.0877496,-0.025357757,-0.0018799397,0.055675477,0.2031477,-0.07107257,0.046098415,-0.043689024,0.024267105,0.09141792,7.911815e-05,0.011811178,0.037399296,0.022713428,-0.14990596,0.07452078,0.08140022,0.029773692,0.052540276,-0.038991228,0.07998471,0.06009489,-0.05443075,-0.013056924,0.018339619,0.07454781,0.02152774,0.09604661,0.003114845,-0.02589284,-0.013847641,0.090598606,-0.04872158,-0.089540675,-0.019798895,0.002597723,0.054839727,0.06655003,0.010136556,0.014906522,-0.009833206,0.019786011,0.016975537,0.011059389,-0.05126563,-0.06731639,-0.006320323,-0.06915484,-0.027134873,0.005663346,0.10825925,0.042477753,-0.04919694,0.121031314,0.03137961,0.019323394,0.060547367,-0.07289666,-0.029056096,0.035557482,0.027512996,-0.0773893,0.069436505,-0.012358615,0.015932709,-0.01178079,-0.034654878,-0.112585105,-0.14209034,0.086924896,0.025056163,0.014001441,0.06857305,-0.06990987,-0.016268043,0.016469318,0.018321311,0.11882836,0.021203449,-0.03305922,-0.058027703,0.05371297,-0.06787278,-0.014644531,-0.07732389,-0.17235503,0.0566784,-0.13959089,0.061643276,0.10207092,0.014330694,-0.065862395,0.029600605,-1.1137971,0.033801764,0.19811499,0.026672827,-0.050372332,-0.06386041,-0.027527705,0.07168783,-0.028989848,0.028379587,0.014420116,0.037693515,0.04443241,0.019404018,0.020859588,0.033850655,-0.12756506,-0.00642216,-0.09936933,-0.033280183,-0.021110566,0.07340282,-0.0037863657,-0.0071042296,-0.035669293,-0.18091032,0.09019753,0.026271163,0.05385807,0.06928072,-0.04262137,-0.05782978,-0.061462767,-0.07533452,-0.0036444077,-0.008777687,-0.028423727,0.056122076,-0.010417166,0.017252449,0.01216309,-0.016065272,0.033435658,0.042037368,0.028162142,-0.026614891,0.01084433,0.0064926087,0.11428227,-0.0055586738,0.016388264,-0.10613129,0.02696906,0.035135325,0.019101378,0.06584657,-0.0027383883,-0.01192195,-0.06417917,-0.09591931,-0.028136948,-0.016303958,-0.020378036,0.065023854,0.08915981,0.009856347,0.1074468,0.014023507,-0.091705,0.05587468,0.0110007,0.018443095,0.005403191,0.055983838,0.004709366,-0.069924034,-0.016280225,0.017005727,0.03520483,-0.026402028,0.011654933,0.032377418,-0.041517973,-0.029685048,0.0060497336,-0.019233214,0.029048467,-0.007879656,-0.034748454,-0.008871942,-0.050087262,0.04540976,0.002079013,0.028711557,-0.04736858,-0.034779154,-0.042169794,-0.018692205,0.10034794,0.021480527,-0.11657145,-0.0035363457,0.13096021,0.00078206236,0.047053315,0.022508578,0.02102968,-0.050917648,-0.069532916,-0.029289464,-0.096398786,-0.059680365,-0.053151485,0.026614686,-0.009522528,-0.077917896,0.05862426,-0.025703091,0.023726245,-0.028820086,0.11373411,-0.017142039,-0.018885816,-0.009639209,-0.041548032,0.004528796,-0.033239756,-0.019169293,-0.019038066,0.042078193,-0.016485598,0.026778342,0.11453881,-0.028442996,0.012106009,-0.060189452,0.09824622,0.095413,-0.038114015,-0.043090466,0.047525134,0.08716583,0.0004984664,0.1217697,0.07990853,0.042933393,-0.011672865,-0.11967249,-0.06491904,0.010632486,0.025444267,-0.031938583,-0.044722147,0.010231395,0.013103252,0.032352343,-0.00411523,-0.031105876,0.0453057,0.085261054,-0.028980037,-0.096313216,0.07595047,-0.0034434095,0.01933468,0.003991984,-0.014887164,-0.008407877,-0.04768748,0.07928171,0.019535622,0.03482677,0.0270672,0.0024667804,0.02012047,-0.10789345,0.069645174,-0.001282744,0.07085185,-0.05659062,-0.01194206,0.03229932,0.11495119,0.14095844,0.06424385,0.034563597,-0.041625213,0.028230546,-0.015105448,0.11216574,-0.006192124,-0.02056302,0.017614763,0.044629406,0.07253397,0.015378668,-0.043101713,0.06425172,0.018531661,-0.0044324095,0.013332076,0.0256769,-0.0021746685,-0.014184739,-0.036294177,0.019533161,0.024992809,0.05237619,0.038793556,-0.10116168,0.038102426,-0.029166607,0.05762509,-0.038685706,0.041224916,0.0376106,0.0546993,-0.007720063,-0.03638284,-0.013786753,0.02557714,0.02222973,0.013776477,0.012354018,-0.029094502,0.18476346,0.058126725,0.0046120016,0.02912225,-0.08457144,0.052808385,-0.028002739,0.032980952,0.04612762,0.06604907,0.086943194,-0.048846938,-0.020700889,0.077583015,-0.013054558,0.045962855,-0.061437733,-0.044262383,-0.0027469913,-0.049299538,-0.020428527,-0.051127333,-0.041021977,-0.013303612,-0.020142406,0.06760107,-0.03257542,0.0014277284,0.007846026,0.05894103,0.0384877,-0.0073824255,-0.037381254,-0.086913474,-0.00954994,-0.008855208,0.0691378,-0.0078992285,-0.042147536,-0.053748865,-0.028813895,-0.07708019,-0.083569065,-0.09181218,-0.02089336,-0.057215117,0.030532865,0.021718757,0.1144294,-0.026239345,-0.0029038112,0.043523002,0.005393348,0.027047852,-0.06440697,-0.0045633498,-0.046243716,0.007465161,-0.09176081,0.024005117,-0.084117725,0.010688953,-0.04985386,-0.011335876,0.032454703,-0.049097676,-0.12326925,0.03397742,0.015399558,-0.0061534387,-0.058152746,0.026986841,0.103454076,0.00076258864,-0.03325672,0.025697917,-0.0121192895,0.043786556,-0.044085056,-0.1877929,0.049231578,-0.053851232,-0.016830802,-0.0038908138,0.11157892,-0.048284717,-0.02821647,0.059574097,-0.041669827,0.003530021,0.001041806,0.004886205,0.014529882,-0.12945996,0.1400409,-0.025120784,-0.07905362,-0.17875752,-0.031710684,-0.007304617,0.030164262,0.01071959,0.035597976,0.02396451,-0.021507254,0.17177744,-0.058849026,0.048465796,0.06602794,0.09959619,0.030625077,0.014146833,0.1687733,-0.034327935,0.016255397,-0.040568184,0.10875537,0.009861352,0.06283099,0.052454088,-0.017077705,0.039899644,-0.052327562,0.012935174,0.07923148,0.016321288,0.065213114,0.024441108,0.016647244,-0.054396387,0.098619096,0.027281018,-0.057031818,0.06423634,0.07093382,0.09083424,0.059768707,-0.052428525,0.0059942175,0.056380592,-0.067595676,0.02387992,0.00527834,0.03107071,0.0190672,0.027464857,0.07723053,-0.011461439,0.0079760635,-0.02345354,-0.0032053448,0.009416821,0.017231127,-0.037838228,-0.040058024,0.009298228,-0.0007786797,0.0026444772,0.014541791,0.039585285,-0.0063960035,-0.007404275,0.013273041,-0.027824411,-0.040317543,-0.00531042,0.10078145,0.03497858,0.0057288664,0.07641241,-0.032598596,0.0012274815,0.019385977,-0.0021828173,-0.008418057,0.050742194,0.013678901,0.00034929067,0.012112583,-0.04200634,-0.035100058,-0.14391431,-0.05186982,0.032356985,-0.004090871,0.062408287,-0.04958093,0.05141786,-0.013120529,-0.04252644,0.024046544,-0.020371864,0.18478923,0.03329916,-0.017092938,0.026499184,0.011559813,0.03074429,0.073574774,-0.07610785,0.14540708,-0.01270557,-0.0012226771,-0.057406753,0.058359466,0.07397245,-0.011415866,-0.016963061,0.0076912213,0.05088964,0.027389707,0.018680962,-0.079697385,0.015705451,0.024107357,-0.007499246,-0.014155551,-0.017924756,0.00032404077,-0.004669402,-0.01840778,0.02514936,-0.003922274,-0.067054026,0.16658103,0.074147366,-0.09577781,0.0047576944,0.09377208,0.0033958748,-0.0025042184,-0.11287516,0.0072743255,-0.036916662,-0.00049855275,0.058972694,0.026321724,-0.045785256,-0.073633924,0.08771869,-0.073919475,0.13079484,0.042210728,0.035902932,-0.010997314,0.025122935,0.003660781,0.100771725,-0.035756726,0.012633357,0.09597999,-0.025703853,-0.090833314,-0.08989355,0.00551902,0.0294883,-0.020104388,0.017136116,0.058624692,-0.0057853316,0.06942892,0.039875206,0.018047329,0.0069172257,0.034084547,-0.029439684,-0.101189114,0.009377493,0.00090877054,0.0046830345,0.036691915,-0.06723938,0.0023571358,0.09277369,0.033654973,-0.01761838,0.07150909,0.007202212,0.0033448096,-0.009876435,-0.066604055,-0.02583488,0.05082605,-0.013460535,-0.025797805,-0.031760335,-0.067471355,0.030079171,-0.029752303,0.07027314,0.09738175,0.024412207,0.0872078,0.07593711,-0.050117955,-0.02474441,-0.015609722,0.07307995,0.003442721,0.007994417,-0.038735874,-0.107647166,0.07440839,0.06653339,0.0029015383,-0.071722634,0.038114347,-0.030888466,-0.02528499,0.02672224,0.035084613,0.053161733,-0.057227533,0.017981505,-0.0044230996,-0.06329856,0.10296312,0.009512374,-0.022078075,0.04501617,-0.021017846,-0.03036588,0.04462072,-0.034978654,-0.009680148,-0.026660038,-0.024433766,0.19905211,-0.07195974,0.05350789,0.05886275,0.020913204,0.03909357,-0.0035921503,0.12700939,-0.06611675,0.014122841,0.031785876,-0.03844203,-0.10045064,0.0014639659,0.0009508479,0.05210188,0.010335674,-0.052676726,0.021347,-0.024843886,0.0010212283,-0.033396743,-0.0015928197,-0.07191154,0.04707353,-0.07066224,0.057637874,-0.048368495,0.023643348,-0.014984653,0.0030034948,-0.018913522,0.047942813,-0.041323226,0.03347757,0.044940166,-0.09048439,0.0045135873,-0.08714761,0.0070311064,0.0293196,-0.077713765,0.027038354,-0.007942923,-0.095961496,-0.08912063,-0.061445866,0.041372612,0.07099213,0.017557416,0.109098144,0.03051099,-0.016759146,-0.030360702,-0.11134302,-0.030805262,0.031844467,0.062380075,0.02639987,0.058225226,-0.08079833,-0.011107228,0.06087223,-0.025533648,0.07853329,-0.10130848,0.01624776,-0.0054661105,-0.015391697,0.015514666,0.05013548,0.094771594,0.031795036,-0.026536984,0.03341065,0.021423412,0.0051995534,-0.028032228,-0.050243296,0.01711129,0.041468043,-0.0839584,0.019979384,0.055958457,-0.0032121947,0.031613823,0.13445821,0.0008144431,0.034192793,0.02351991,-0.1094777,-0.031824514,0.06791593,-0.054716952,0.08744383,-0.01585941,0.037282497,-0.05273741,-0.03915998,-0.070787996,-0.0062932163,-0.03664093,0.0065638623,0.011391682,0.003676223,0.03090303,0.05172071,0.15049861,-0.08002483,0.029654177,-0.026859127,-0.06785596,-0.05321494,0.07665944,0.0041662147,0.026458563,0.0361587,0.0025364736,0.012689135,0.023534128,-0.02440457,0.040269732,0.015584942,-0.042515874,-0.04603362,0.045671534,-0.06347767,-0.08233302,0.003599931,-0.025963506,-0.028847782,0.021946495,0.0023810351,0.0550369,0.10319075,-0.04661104,0.036539074,0.050826415,-0.08252831,-0.007487306,0.02409822,-0.038112648,0.01067208,0.0015090465,0.072965525,-0.04742786,-0.06183393,-0.088314325,0.0155528225,-0.019963054,0.10721723,0.15336224,0.066031925,0.008652581,0.030066535,-0.02481375,0.10557115,0.07180737,-0.03233084,-0.029198503,0.05371076,-0.013472975,-0.047062546,-0.023434862,0.11445951,-0.009813577,0.014540831,-0.015051977,-0.05389682,-0.08305897,-0.079948485,-0.034560546,-0.041713014,0.04415778,-0.0032286465,0.072700955,-0.041417718,-0.016651206,-0.0011045081,-0.0065646847,-0.0036836187,0.098716654,0.04144961,-0.026628032,-0.04137664,0.106864385,0.032790165,0.03992516,0.009240444,0.03682595,0.0025928637,-0.03503513,0.047562335,-0.028387062,-0.07100621,-0.024821723,-0.026285945,-0.03752175,-0.015565338,0.09420699,-0.052265707,-0.00057020085,-0.045878567,0.05719505,0.0010493242,-0.03862168,0.042515352,-0.0139900055,-0.052386675,0.00044685163,-0.011997876,-0.00565797,0.08389691,0.0023264394,-0.049085177,0.004325424,-0.016766215,-0.0208308,-0.0012555232,0.036720697,-0.051468685,0.0015459573,-0.034737486,-0.034689635,0.065977216,-0.022098547,0.013022737,0.041267976,0.036298044,0.05344647,-0.009921125,0.028170124,0.014540424,0.07676142,-0.08697941,0.113617554,0.05945944,0.0315353,0.03639395,-0.042922314,-0.07213308,-0.006023255,-0.002287155,-0.05472151,-0.03229794,-0.039766934,0.030693997,0.005635797,0.0016349668,0.15766872,0.023172904,0.016859457,0.007292694,0.038237374,-0.037328165,0.0016378817,0.041643273,0.006119957,-0.036785036,0.0006907356,0.036836416,0.04849934,0.009215812,-0.06884707,-0.070155606,-0.033429127,0.081165925,-0.04129937,-0.04994775,0.027760236,-0.0020230953,0.0947029,-0.067691416,-0.10709707,-0.0551986,0.021653358,-0.028073434,0.089233115,-0.03835949,0.006802095,-0.01800822,0.07920983,-0.009352332,-0.026771605,-0.021532,-0.032292098,0.04083172,-0.031766165,0.085843556,-0.008285821,0.00172632,0.07083772,-0.08419253,0.081617735,0.071326785,0.012997907,-0.098082505,-0.118550144,0.09729551,-0.017486714,-0.055706747,0.077391885,0.08792451,0.0027801374,-0.034728575,0.0096671805,0.07994537,-0.14435112,0.04779098,0.021719692,-0.025556698,-0.082318395,0.08995122,0.077660955,0.0036025606,0.0069535696,0.035348937,-0.11680283,-0.062446564,-0.004264376,0.026380666,0.06201777,-0.004905221,-0.06370098,-0.0006524445,0.11389984,-0.06288047,-0.06106677,0.05426976,0.06174546,0.041989114,0.042390674,-0.00075264974,-0.002698043,0.091187134,-0.090771064,-0.02338362,-0.12092036,0.040871713,-0.010731625,-0.065858945,0.047892064,-0.021618286,0.016260583,0.0062245703,-0.09251982,-0.025327556,0.08075603,-0.050841484,-0.12158073,-0.01628947,0.014023111,-0.019574367,0.011039253,-0.02884771,0.045201115,-0.034543585,0.010812778,-0.108125865,0.07286419,0.05751727,0.00074727024,-0.025957668,0.028850242,-0.0058569396,0.010085044,-0.0010402586,-0.034604847,-0.003763723,-0.01311589,-0.05863316,-0.0028015976,-0.086221084,0.068476975,-6.0590334,-0.06446408,0.039251894,-0.035980217,-0.006478682,-0.017047629,-0.055766564,-0.06286193,0.11561796,-0.02774666,0.08022397,-0.018014854,0.05661331,-0.041488793,0.010048418,0.00035601284,0.028116662,0.026530618,-0.017223094,0.08806651,0.05143347,-0.013071714,-0.01580008,0.11927282,0.013850989,-0.0136138415,0.031590097,0.016346708,0.050848406,0.13849667,0.012885097,0.025350077,-0.059324034,0.1017749,0.034968406,0.12663548,0.04271015,0.0008212416,0.17979774,-0.07158136,0.040388998,-0.080439,-0.033129998,-0.026881713,0.006869124,0.012579365,-0.041788146,-0.07970389,0.023013012,0.03664015,0.031564325,-0.0070962147,-0.0067543024,-0.08983849,0.06567437,-0.010136414,-0.03663608,0.11045266,0.05356359,0.08905643,0.062536195,0.02170022,-0.03392223,0.042035423,-0.0012428383,-0.036940128,-0.06145539,-0.0011732929,0.0094808815,-0.048851307,0.067238055,0.017270116,-0.010899782,0.060619403,0.03287786,-0.030871706,-0.038395423,-0.07971699,0.15526052,0.0364773,-0.120093904,0.08965689,-0.053010594,0.087738976,0.09831384,-0.044229407,0.06772722,0.10110604,-0.020146357,0.06476557,0.11151377,0.101963274,-0.024663307,0.0036843086,0.024838882,-0.02028739,-0.056033824,0.044521675,0.052068636,0.031347238,0.027919145,0.029964793,-0.022161081,0.06322555,0.01725821,-0.011872474,-0.048510786,0.03451519,0.027465135,0.08080091,0.027513776,-0.07678892,-0.07431837,0.021044595,-0.01996196,0.036677867,0.090296395,-0.11200047,-0.019051168,0.07212908
ERS702133,0.004414771,-0.059300333,-0.015193373,0.06312597,-0.08533001,-0.010639808,0.017652085,-0.06961928,-0.024497304,0.05672469,-0.011422091,-0.022552459,0.11194591,0.11102562,-0.01671464,0.07915081,0.047367964,0.049682915,-0.012327985,-0.0234632,0.065851755,-0.052700825,0.051379103,0.013620347,-0.024814839,0.0102148075,0.0021095404,-0.020037478,0.0026571432,-0.1355052,-0.015887154,0.01340691,0.09314003,0.04502891,0.0026087707,0.016779272,-0.020018496,-0.0015473847,-0.022760356,-0.010429902,0.033707652,0.026755035,0.13991554,0.0037864472,-0.028126916,-0.067446046,-0.06348101,0.043879125,-0.007990437,-0.054378975,-0.04054409,0.049704254,0.061334968,0.04385857,0.017805766,0.01688212,0.0006692497,0.020284329,0.012341052,0.020573411,-0.14058821,-0.0071539422,-0.052421134,0.07378288,-0.010929417,0.040598087,0.087868996,-0.06038054,0.07657599,-0.037409082,-0.0033745472,-0.060980886,-0.008081266,-0.069424115,0.0061954805,-0.020754997,0.03222473,0.15587156,0.023922052,0.05700033,-0.004953175,0.015114119,-0.06970137,0.10364933,-0.030578863,-0.0042952932,0.066086866,0.056791075,0.10673493,0.0097204745,0.06304008,0.07850618,0.013803253,-0.038507905,-0.040594183,-0.0444563,-0.0037416809,0.013285304,0.07506235,0.05029856,0.050231736,-0.012012232,-0.045800656,-0.0510042,-0.019216351,-0.045148615,-0.041439153,0.002906739,-0.04919331,-0.032555155,-0.015944466,-0.011148652,-0.021446776,0.028949678,-0.014826504,0.022181358,-0.15104748,-0.08534678,-0.0032349788,0.07965012,-0.030267168,-0.00082631863,0.0586299,0.006974605,-0.033404283,-0.056954794,0.060216278,0.0124303,-0.082281426,0.053705126,-0.023052054,-0.033544578,-0.031018933,-0.05669111,0.0038471106,0.09958851,0.013421813,0.10441913,0.024448836,-0.041403692,0.050778966,-0.090501055,-0.024545144,-0.002513465,0.064403646,0.2023426,-0.06747017,0.06033237,-0.048934836,0.030576631,0.08610718,-0.01579816,0.008181539,0.03157159,0.022783946,-0.13089082,0.07348187,0.07777557,0.03495638,0.036440827,-0.04476959,0.08992,0.058592804,-0.06609784,-0.011453132,0.016512822,0.083928294,0.02602736,0.08944909,0.007680168,-0.018329125,0.0009734457,0.09357775,-0.05903393,-0.07140856,-0.02538084,0.0031091585,0.063507356,0.06822219,0.00064060313,0.012501312,-0.010193782,0.013968108,0.01576358,0.0047671995,-0.053088956,-0.06496821,-0.009619987,-0.061945837,-0.03083109,0.006926653,0.105271146,0.048984043,-0.056272097,0.12893894,0.04029006,0.024781603,0.040937793,-0.070470236,-0.023302602,0.04438384,0.042442847,-0.07008614,0.058948893,-0.0067108274,0.008972948,-0.007863511,-0.036123972,-0.1263891,-0.13582814,0.086061895,0.036532063,0.026891898,0.06484257,-0.07967397,-0.00652764,0.024289448,0.00976214,0.11659998,0.017676702,-0.021790542,-0.054226927,0.05172106,-0.06204932,-0.009077558,-0.06478395,-0.16896956,0.04523698,-0.14316836,0.066638574,0.09504881,0.017788066,-0.07456653,0.04229719,-1.0363388,0.041886546,0.18565461,0.026642825,-0.062477667,-0.0820098,-0.02160303,0.07294706,-0.02748237,0.032307655,0.020375848,0.045032017,0.04880946,0.023798153,0.010912749,0.024019126,-0.12652858,0.004698182,-0.08955689,-0.032100666,-0.025317958,0.06347962,0.0030634324,-0.005115232,-0.038087837,-0.18309082,0.09510921,0.034770425,0.05278039,0.08062147,-0.04834523,-0.049536515,-0.06926622,-0.082107134,-0.0013830871,-0.016360056,-0.024102276,0.05704043,-0.0125975255,0.014314775,0.019623348,-0.012698504,0.035960056,0.029096704,0.014806626,-0.033660688,0.0062731886,0.0052624345,0.12667213,0.001524977,0.019030947,-0.12953916,0.021419546,0.030490454,0.023872241,0.067541994,-0.004001312,-0.0029997542,-0.052519657,-0.09055807,-0.027881611,-0.010957942,-0.020055002,0.07064897,0.08442415,0.0064795823,0.10149835,0.017364198,-0.08560251,0.057694066,0.0146995485,0.02575023,-0.0058765747,0.04425867,-0.0061455085,-0.075833544,-0.020049132,0.0031042884,0.030300196,-0.024622817,0.004245622,0.013873932,-0.043311074,-0.03852681,-0.00056586973,-0.022558458,0.021575693,0.0011472808,-0.0240557,-0.0118638445,-0.046307094,0.043110885,0.019600444,0.033205334,-0.04898297,-0.030790996,-0.041505136,-0.017041057,0.10575487,0.026446095,-0.11186105,0.0070160488,0.12413038,-0.009844903,0.051335193,0.00015251804,0.03270314,-0.048006557,-0.08196798,-0.02373018,-0.10107833,-0.06460939,-0.05215571,0.023505243,-0.02588512,-0.07554762,0.05734245,-0.03489272,0.024506044,-0.026925484,0.114859305,-0.012558724,-0.015312413,-0.01990546,-0.035161875,0.008190675,-0.036313374,-0.0061215064,-0.016492426,0.033247694,-0.020276304,0.023082102,0.11985482,-0.028389046,0.012220316,-0.067592144,0.100333706,0.095438704,-0.03030822,-0.029971961,0.04611028,0.07194079,0.0025943492,0.11938919,0.08552833,0.04630621,-0.0066737235,-0.11270355,-0.054575287,0.008846543,0.038009886,-0.024560196,-0.042622536,-0.005742137,-0.00029685273,0.040767714,0.0022699616,-0.018448459,0.027027085,0.08601959,-0.04223604,-0.0932235,0.07596351,-0.0046096696,0.017881908,-0.018145815,-0.010572282,-0.0053051095,-0.04310474,0.07313607,0.0064238654,0.036128215,0.025707403,-0.010397088,0.029292148,-0.10207899,0.06754198,0.00017726692,0.06364,-0.061282746,0.003965362,0.03640392,0.11930053,0.13031629,0.057276476,0.026307017,-0.051449817,0.027512252,-0.018222447,0.108450785,-0.0066707195,-0.019165952,0.015129152,0.044757493,0.09073682,0.013484215,-0.035708904,0.075140096,0.016373431,-0.0011927166,0.033216737,0.039278317,-0.004286599,-0.011845269,-0.03870698,0.007791524,0.018798832,0.040827475,0.04178678,-0.10102417,0.031783085,-0.033444274,0.06322624,-0.035997104,0.044399004,0.030062135,0.054192495,-0.009805665,-0.020357631,-0.0059551974,0.04015268,0.017046025,0.02420332,0.015259457,-0.031306162,0.17586613,0.06503023,0.0074303625,0.022725707,-0.08187904,0.05651942,-0.028179184,0.029415643,0.05136486,0.06879327,0.077706866,-0.045593925,-0.013794486,0.07475822,-0.020013481,0.05135537,-0.044232786,-0.050434332,-0.0009289311,-0.049304523,-0.025691286,-0.047084793,-0.04924459,-0.015287878,-0.032631088,0.06527777,-0.030096192,0.00473689,-0.006200026,0.052514296,0.03546851,-0.020981252,-0.04206869,-0.07580164,0.005692995,-0.013176292,0.072429754,-0.017158408,-0.039784234,-0.05154839,-0.030040974,-0.08024332,-0.087088786,-0.091417216,-0.016439639,-0.049943455,0.039778456,0.019703912,0.11790383,-0.017254852,0.0052816723,0.042784646,0.004145292,0.013077666,-0.058932137,0.007370334,-0.03943756,0.012896314,-0.08532241,0.022989927,-0.07276974,0.02358053,-0.047467817,-0.0148205105,0.03160574,-0.04696544,-0.12885919,0.027627062,0.037612867,-0.0028667736,-0.047711797,0.022421475,0.10067084,-0.001974015,-0.025359932,0.0126290815,-0.019278899,0.046601735,-0.05476501,-0.1770118,0.051417667,-0.0563703,-0.02445508,-0.0036107586,0.11175708,-0.053117733,-0.032427557,0.049433827,-0.03787175,0.011264026,-0.002110726,-0.00024798643,0.025990939,-0.120457456,0.1580074,-0.023749217,-0.067823306,-0.18683483,-0.033698447,0.0044082394,0.022474868,0.011102298,0.034226395,0.023987643,-0.007937624,0.16579728,-0.06504171,0.056122202,0.072330676,0.09226535,0.029285828,0.016787691,0.15738599,-0.022685368,0.009498777,-0.04180343,0.124170974,0.0059584426,0.056795347,0.04648648,-0.022218475,0.038631897,-0.04544833,0.013676341,0.08582946,0.013207679,0.057659745,0.02241084,0.01710998,-0.045072734,0.094917715,0.02714939,-0.06655664,0.06749345,0.07487537,0.09757641,0.06357251,-0.03642414,0.003651088,0.053641476,-0.057925712,0.018365432,0.0073814914,0.031005204,0.016061958,0.01056589,0.072004244,-0.019712683,-0.0059249355,-0.033815525,-0.003696444,0.005935522,0.014536467,-0.04321969,-0.043300547,0.0044925762,-0.00836019,-0.003167874,0.0044427137,0.054418344,-0.0055728685,-0.014426899,0.014286837,-0.03265391,-0.035694003,-0.0026201196,0.10977914,0.037417505,-0.0030591676,0.07535464,-0.02609722,0.005647632,0.02220706,-0.008888891,-0.001791782,0.042043466,0.0051323357,-0.008908784,0.011315006,-0.032645397,-0.039743073,-0.13199893,-0.043387547,0.036934264,-0.0073222034,0.07013228,-0.048459914,0.051108222,-0.020929629,-0.047216352,0.021104652,-0.025267115,0.18227953,0.05409084,-0.028405523,0.030457044,0.0114499815,0.023469295,0.07332012,-0.08682735,0.15639241,-0.012093568,0.0057649957,-0.058830895,0.047787704,0.07696433,-0.017230589,-0.020712575,0.016611928,0.054951824,0.019141879,0.014551771,-0.069008775,0.006810601,0.023244467,0.015649715,-0.00923468,-0.012442495,-0.010795142,-0.005862241,-0.013374428,0.027156401,-0.01069683,-0.06710026,0.17323679,0.07637807,-0.08405037,0.00434695,0.090958014,-0.001572106,-0.008546544,-0.06933739,0.008504795,-0.026051769,-0.0034929127,0.043146126,0.028426072,-0.056219865,-0.07291798,0.080487624,-0.078452334,0.13033484,0.044360742,0.039419565,0.0015271052,0.034685366,-0.012425438,0.093065396,-0.02699996,0.011366296,0.0944243,-0.022759013,-0.09137307,-0.09460731,0.005864743,0.04345253,-0.011200301,0.009262069,0.06420952,-0.018169073,0.057418577,0.039108243,0.017753024,0.028362304,0.038819183,-0.02148805,-0.09869984,0.01611318,0.0028230692,0.0068746097,0.042858716,-0.057573073,0.0023533187,0.07747586,0.04779916,-0.010981073,0.065642774,0.07296564,-0.00054839643,-0.032706413,-0.06364775,-0.033754718,0.064253934,-0.012791717,-0.023827864,-0.032085806,-0.049729012,0.027629968,-0.04816726,0.0662687,0.10140693,0.021149922,0.079795696,0.07497115,-0.048846915,-0.03323306,-0.0073040025,0.06910555,0.005234135,0.013844371,-0.04096248,-0.11065414,0.07960551,0.08279961,-0.006680588,-0.07158959,0.045667082,-0.031257734,-0.017313417,0.018100059,0.031729273,0.048936673,-0.047241773,0.015783234,-0.01753917,-0.06917997,0.10638784,0.0046071047,-0.023051517,0.03357598,-0.026830088,-0.023994109,0.038292877,-0.038966138,-0.011488741,-0.046474613,-0.015675722,0.19430375,-0.081919506,0.055962216,0.06359584,0.025657767,0.026438385,-0.016978864,0.13692962,-0.066411994,0.022170968,0.036051866,-0.036252864,-0.0940163,0.0015045168,-0.0018622903,0.06395721,0.012698704,-0.05429132,0.033786375,-0.029003192,0.00088610203,-0.026431436,-0.0008566873,-0.07785635,0.054939233,-0.05771489,0.06263983,-0.027875636,0.014432174,-0.022497924,0.009698843,-0.019892564,0.059216727,-0.027522927,0.024187056,0.039677843,-0.09185521,0.023425953,-0.076914795,0.0076688444,0.03358475,-0.080322444,0.026205877,-0.015472969,-0.08643259,-0.081683375,-0.067706026,0.03619453,0.0638898,0.027769476,0.11460058,0.029750312,-0.020001601,-0.015505249,-0.11321914,-0.034730513,0.032530397,0.060176097,0.026925301,0.058471065,-0.06698323,-0.015233627,0.06051154,-0.03851825,0.08371831,-0.10996137,0.026033059,-0.017316889,-0.02511428,0.017225415,0.049549848,0.07093666,0.022089798,-0.028155485,0.028720265,0.021927875,-0.0038324718,-0.032270122,-0.051006515,0.02300373,0.05080672,-0.07847551,0.025370318,0.05763231,0.0023850072,0.032326467,0.1263118,-0.009237073,0.024524739,0.017725255,-0.07341673,-0.022785053,0.052024536,-0.051712453,0.094268784,-0.015063515,0.036435574,-0.04226979,-0.046934478,-0.074330315,-0.011301553,-0.020873304,0.0076831295,0.025235202,-0.005910608,0.025939763,0.05853132,0.15550676,-0.078975335,0.021884423,-0.017129716,-0.077342734,-0.06474401,0.0693375,0.0011347227,0.033739135,0.036550723,-0.0027757739,0.001892259,0.02912814,-0.029817319,0.03056248,0.015815316,-0.054189604,-0.06558683,0.0485797,-0.06382905,-0.07880314,0.016368601,-0.021863665,-0.013679805,0.018878806,-0.002161526,0.05705185,0.10503248,-0.03891429,0.03111362,0.06260274,-0.07774458,-0.013031475,0.029558305,-0.044505473,0.0026607248,0.006087861,0.07738554,-0.042655595,-0.07262419,-0.094264075,0.012220943,-0.028406058,0.10637339,0.1482693,0.048593257,0.00630526,0.024641152,-0.013327095,0.10969375,0.06795179,-0.040847752,-0.028850567,0.06061216,-0.005553323,-0.050654896,-0.026529044,0.1166595,-0.006887518,0.02333418,-0.007513377,-0.04136359,-0.09787418,-0.080915496,-0.038967755,-0.035531797,0.051755168,0.021762092,0.07745299,-0.044833448,-0.024565134,0.0018097848,-0.01072219,-0.006258157,0.077484444,0.055987697,-0.020818595,-0.048744656,0.10702436,0.045970317,0.032510422,0.018090423,0.039708514,0.006363906,-0.016255291,0.042200413,-0.024890639,-0.058550984,-0.022714056,-0.040211212,-0.030922735,-0.008393334,0.07710482,-0.054866694,-0.00081053714,-0.037784297,0.06368388,0.011512709,-0.03235263,0.03106533,-0.008567664,-0.06314156,0.0032768105,-0.016768584,-0.005722257,0.09446355,0.006773083,-0.0668618,-0.0005867174,-0.026933271,-0.024787817,0.009954287,0.041818522,-0.059778076,0.002365707,-0.032567162,-0.040593468,0.06251737,-0.03851243,0.017192516,0.03258237,0.03869203,0.039616633,-0.023133101,0.023040967,0.015152534,0.07838557,-0.08567195,0.10738816,0.06873537,0.03042663,0.02861253,-0.041262772,-0.090321556,-0.020399837,0.008819729,-0.048259687,-0.02311318,-0.026516426,0.032286413,0.013456781,0.0046833577,0.13871872,0.021110374,0.009591816,0.0026545776,0.0525424,-0.033893295,0.0009420713,0.024188356,0.0014500568,-0.040577494,0.0002028984,0.018100498,0.056590892,0.0075277537,-0.07470863,-0.06629541,-0.031677105,0.070933685,-0.049166717,-0.057759047,0.024437156,-0.012139935,0.08055934,-0.05988734,-0.11573615,-0.057448585,0.021587742,-0.032223046,0.089468315,-0.040609214,0.0013261819,-0.021066193,0.08264731,-0.007288821,-0.030738149,-0.028886298,-0.04653582,0.031705417,-0.022752378,0.07952394,-0.015790198,0.010827395,0.072898194,-0.09041568,0.08729452,0.061915357,0.010677425,-0.08333145,-0.123996235,0.09066562,-0.022061978,-0.05759167,0.067517504,0.096619755,0.011662982,-0.035958435,0.011804219,0.07472638,-0.14642286,0.046884794,0.033104002,-0.031876046,-0.07649272,0.08997701,0.08386882,-0.0029490697,0.007213515,0.03649335,-0.11721499,-0.047134526,-0.0022101975,0.033101335,0.07010063,-0.013631204,-0.054758467,-0.008143624,0.11632639,-0.06382176,-0.061018806,0.04880995,0.037912387,0.034136795,0.0491421,0.013038958,-0.005487642,0.073085964,-0.084833786,-0.026280928,-0.12301723,0.039546527,-0.012935368,-0.07974494,0.055755995,-0.0178247,0.017082049,-0.0064354464,-0.079893604,-0.01797445,0.08248634,-0.054068428,-0.106116906,-0.013738796,0.014758323,-0.011834198,0.021283649,-0.030877212,0.030693408,-0.03755086,0.016247366,-0.0906253,0.061246216,0.05222273,-0.003111946,-0.024781723,0.036717687,0.0020238445,0.01572207,0.009489008,-0.03662113,-0.0027395834,-0.010724552,-0.044358272,-0.0031788177,-0.08236072,0.07146261,-6.067244,-0.07125601,0.04391817,-0.034037873,-0.01035764,-0.012192408,-0.050652377,-0.056615464,0.11169727,-0.030803671,0.06704208,-0.009778392,0.04388368,-0.033859264,-0.006201984,0.009311193,0.018947419,0.014722127,-0.023381006,0.06940338,0.04648257,-0.021991272,-0.004514552,0.13068111,0.011430302,-0.014072408,0.033057578,0.00014555213,0.044467192,0.12599872,0.016015984,0.0217861,-0.052327342,0.094638646,0.042744495,0.14368741,0.053246,-0.0030167978,0.1844502,-0.06536674,0.051772576,-0.091673,-0.016022678,-0.0033718483,0.008329816,0.004405041,-0.061558675,-0.0837424,0.030157339,0.02522383,0.034362964,-0.0069953045,-0.013018774,-0.08940689,0.06321135,-0.014242463,-0.03523978,0.1184188,0.04865567,0.08471073,0.0648102,0.011144553,-0.05088576,0.041396417,0.0054955883,-0.03195074,-0.07028183,-0.0047925403,0.009340233,-0.0384833,0.053786308,0.015041478,-0.012191543,0.06785464,0.042494465,-0.027438238,-0.042023215,-0.08789788,0.12606312,0.016295213,-0.11362879,0.07833528,-0.057920612,0.078700155,0.097083785,-0.030970056,0.050838877,0.09504883,-0.036350485,0.06328037,0.10783712,0.09073104,-0.0090650525,0.0066029355,0.028360426,-0.025669422,-0.045837544,0.045108058,0.039855596,0.034381084,0.024147317,0.039232768,-0.020343307,0.054050617,0.030862793,-0.0064857984,-0.034978893,0.045806695,0.029554268,0.07832236,0.017113466,-0.062882386,-0.06588145,0.011181995,-0.032961108,0.026106214,0.07409326,-0.11982751,-0.010616306,0.060290508
ERS715472,0.0018084007,-0.05946786,-0.019234873,0.060700133,-0.08176615,-0.013168354,0.015323083,-0.06875455,-0.020579815,0.062777914,-0.012212,-0.014058676,0.11796154,0.10018163,-0.023778083,0.0789528,0.045009628,0.04768758,-0.007881815,-0.031046338,0.062093932,-0.05761477,0.045766592,0.011377316,-0.017497655,0.020925786,0.0012865621,-0.017355528,0.0050316593,-0.13708991,-0.01661136,0.012387393,0.086339556,0.0460054,0.008139033,0.010046023,-0.01698405,-0.0022242633,-0.019752871,0.0037513012,0.027369278,0.027130341,0.14852646,0.00083911704,-0.024236992,-0.06790866,-0.060806334,0.049852174,0.001670335,-0.053895067,-0.04649583,0.05243441,0.062325384,0.04652184,0.022975042,0.010823812,0.0015118412,0.022313545,0.023730496,0.014841235,-0.14943936,-0.00041012286,-0.050606743,0.066123076,-0.014386237,0.02936608,0.082701676,-0.06713599,0.08614732,-0.043202884,0.0036649182,-0.070488535,-0.005029868,-0.069782935,0.0044742525,-0.015256147,0.026356563,0.16090642,0.012721736,0.056863222,-0.010912251,0.01734726,-0.073868856,0.09992517,-0.031892575,-0.0015320352,0.073102385,0.049138803,0.08892375,0.016070487,0.0683873,0.082731746,0.008166279,-0.039832428,-0.030105293,-0.039957944,-0.008742741,0.01741652,0.07613063,0.039146654,0.047988173,-0.022207685,-0.038195994,-0.052544236,-0.026677504,-0.044215314,-0.044124637,0.0052896608,-0.0477297,-0.031660136,-0.00525342,-0.011117676,-0.01867766,0.025392033,-0.01305056,0.018905098,-0.16718978,-0.08540025,0.00309133,0.08482087,-0.029441409,0.0009211625,0.0643056,0.005779145,-0.03830241,-0.06504846,0.063119814,-0.00017607502,-0.07819101,0.056972794,-0.018711409,-0.022196632,-0.03098046,-0.047846183,0.0044841776,0.09659341,0.009338189,0.107382104,0.017311355,-0.044789203,0.04500021,-0.09148611,-0.027995255,-0.0060136267,0.061201684,0.19924383,-0.071609825,0.05456017,-0.053350527,0.026541902,0.08947011,-0.014992709,0.019372374,0.027614055,0.01673414,-0.13175045,0.07334507,0.07423523,0.040706467,0.046662882,-0.04345776,0.09511355,0.059184473,-0.06777872,-0.013309924,0.018726554,0.079449214,0.01840103,0.09075659,0.010700702,-0.024335437,6.030003e-06,0.08483949,-0.057429407,-0.06561917,-0.026215937,-0.0004867928,0.062546074,0.06484438,-0.006086872,0.0067479624,-0.016075972,0.017470432,0.017429866,0.0046796855,-0.05538322,-0.064015545,-0.010213586,-0.061899826,-0.03829778,0.013780337,0.11031325,0.050907437,-0.06280009,0.11990162,0.037743315,0.019669315,0.052299142,-0.07057271,-0.025519578,0.05067052,0.052287385,-0.078237884,0.057968922,-0.009358861,0.016793378,-0.010677342,-0.032917295,-0.11951947,-0.14575084,0.08159641,0.033696115,0.0200341,0.061287735,-0.07434432,-0.0103817955,0.028872864,0.009632068,0.11684957,0.01897452,-0.028030924,-0.06317824,0.055956252,-0.072233714,-0.008657907,-0.062001646,-0.16947411,0.048016794,-0.14155817,0.06287204,0.09819659,0.008979162,-0.06791166,0.033770204,-0.98043644,0.036836382,0.1879045,0.029006766,-0.06534476,-0.07511442,-0.028048588,0.07579703,-0.030567653,0.028139638,0.02890546,0.037247945,0.050954193,0.021020211,0.02264235,0.021758221,-0.12528239,0.0030012247,-0.0873098,-0.01994802,-0.029336466,0.0595209,-0.009977068,-0.011556367,-0.037635997,-0.1737549,0.10372055,0.03524962,0.0627719,0.07255721,-0.04083031,-0.05330289,-0.06646821,-0.07176059,-0.004290751,-0.016767316,-0.026611432,0.057590034,-0.023777897,0.027582003,0.020486841,-0.016273843,0.025262482,0.04091356,0.019771067,-0.035825595,0.004646264,0.0012939974,0.11504417,-0.002337546,0.02337477,-0.12954588,0.028563516,0.032197908,0.025290811,0.067972094,-0.0038392586,-0.008520683,-0.06459835,-0.0936735,-0.043929573,-0.010690497,-0.015722789,0.06618097,0.08959408,0.011677277,0.105865404,0.014435079,-0.08996299,0.05474501,0.02154761,0.018780064,-0.003258151,0.040253688,-0.008803297,-0.07050984,-0.021433504,0.0045044604,0.033839256,-0.027423847,0.0019711284,0.017171344,-0.042776227,-0.039390255,-0.006598661,-0.026070088,0.017663226,-0.0048275082,-0.031743836,-0.0054658684,-0.05308527,0.040091306,0.011915905,0.03381521,-0.056329966,-0.03320733,-0.038058568,-0.029413693,0.105160944,0.021095134,-0.11687284,0.0050366046,0.1300708,-0.0035372037,0.0562492,0.008858084,0.028425492,-0.04379132,-0.07492345,-0.022153905,-0.0964871,-0.063118115,-0.057562802,0.01968801,-0.021212427,-0.06671703,0.05174209,-0.03699062,0.027022922,-0.029548585,0.11165154,-0.014492035,-0.018261656,-0.0228566,-0.038175248,0.0072596096,-0.03220565,-0.00919997,-0.020463023,0.045298025,-0.016145706,0.024455182,0.11581658,-0.023318104,0.021516684,-0.06879184,0.10746515,0.10080387,-0.027311556,-0.03771968,0.049232442,0.07676475,0.0072072446,0.119954996,0.08333829,0.0548707,-0.004398438,-0.10857316,-0.061712477,0.00929012,0.024237372,-0.024816636,-0.044089243,-0.00274968,0.007932674,0.039005842,0.0012052932,-0.01625941,0.026495926,0.076008186,-0.035943314,-0.0851938,0.084605165,-0.0019704252,0.021409363,-0.007485645,-0.008453798,-0.007218096,-0.052758858,0.07880418,0.0031847304,0.0362903,0.018085461,-0.007882842,0.02152539,-0.089224584,0.06796997,-0.011624937,0.06825213,-0.055737786,-0.00090281083,0.033443756,0.11835931,0.1329229,0.0650171,0.022314385,-0.052323293,0.024585206,-0.019533621,0.10023615,-0.009706159,-0.024214312,0.026418654,0.044476435,0.08604308,0.020108063,-0.027555801,0.07080248,0.0031330376,-0.0010674059,0.035858706,0.03547425,-0.014810287,-0.007567922,-0.04003146,0.017015018,0.011165016,0.035930857,0.039484456,-0.10425761,0.03307279,-0.027678978,0.06381426,-0.026430337,0.042534042,0.023047786,0.050351575,-0.019711893,-0.01862709,-0.0074991104,0.03569841,0.011598422,0.022078497,0.020780556,-0.029877424,0.17595178,0.067191355,0.014629569,0.03107857,-0.07340346,0.056052104,-0.030698657,0.028151592,0.056285135,0.06740735,0.083400466,-0.04790388,-0.011590171,0.070928946,-0.015992215,0.041745845,-0.051335063,-0.047300994,0.008407451,-0.04796721,-0.036951624,-0.04889801,-0.043691084,-0.021004306,-0.0073589087,0.059333503,-0.025556562,-0.0016199187,-0.0034410658,0.04733744,0.029041598,-0.011041106,-0.041084487,-0.085464224,0.0027868538,-0.017000563,0.06959856,-0.010863656,-0.040197708,-0.045639828,-0.022905625,-0.088236265,-0.07422623,-0.088289194,-0.0142797185,-0.046367235,0.03175114,0.024703853,0.122505344,-0.01604593,0.009853585,0.04135431,0.0044879178,0.007850778,-0.063416734,0.0110869,-0.039500408,0.011867157,-0.09026489,0.022824053,-0.07022919,0.01960508,-0.050422188,-0.024288757,0.029713072,-0.048509903,-0.12775008,0.03257282,0.037414636,-0.002984455,-0.05255201,0.02282195,0.10813404,0.00032542893,-0.030923724,0.011116625,-0.018529264,0.041012004,-0.040734634,-0.17753975,0.050527856,-0.055023,-0.02413142,0.0031752053,0.098651044,-0.042548995,-0.035767548,0.050120458,-0.031345185,-0.00046245533,-0.00040064752,-0.0010490388,0.033618942,-0.12613787,0.15262112,-0.017251778,-0.059292786,-0.18971299,-0.029480623,-0.0020583426,0.017433407,0.011825737,0.038652405,0.027187815,-0.015466622,0.16974312,-0.06904612,0.05644771,0.07144708,0.08808957,0.02618929,0.00983586,0.15129648,-0.032658692,0.010510046,-0.035334054,0.12607238,0.0058929906,0.05749648,0.049403157,-0.011221942,0.033879593,-0.050778184,0.020002037,0.09449109,0.004931217,0.055738553,0.014242117,0.015306194,-0.044972885,0.08856818,0.028134279,-0.060368683,0.06746634,0.07234306,0.09802062,0.05679839,-0.031963807,0.0095686875,0.06691834,-0.052447066,0.020087214,0.0022555874,0.018906038,0.021960689,0.013064843,0.075665385,-0.023039004,-0.00050130696,-0.02401547,-0.006270622,0.013698208,0.013777543,-0.032253467,-0.046815313,0.008654593,0.00017583712,0.008590205,0.007091401,0.05012278,-0.0035181912,-0.0070462325,0.0071951356,-0.029705755,-0.03603314,-0.012057087,0.112491235,0.040773273,0.0076979133,0.076802164,-0.02185959,-0.0076639587,0.013544399,0.0043627825,0.00085877255,0.043736044,0.007941573,-0.00061061856,0.0053402088,-0.032774523,-0.036187544,-0.13211004,-0.04707609,0.039992783,-0.0055997605,0.06348619,-0.049943116,0.056727726,-0.0069901412,-0.04536594,0.017697282,-0.020102443,0.18381187,0.041204315,-0.029686974,0.02101778,0.008247447,0.03015901,0.073715836,-0.08216898,0.1421835,-0.011424488,-0.0018348747,-0.06473562,0.050500147,0.06541893,-0.029562138,-0.013722713,-0.0002859899,0.04993446,0.024426205,0.021705955,-0.073087215,0.010228894,0.010851872,0.019084211,-0.010302421,-0.015666999,-0.008667088,-0.0013698782,-0.0050230413,0.02047091,-0.0020025412,-0.065875225,0.16627803,0.07869267,-0.0811819,0.0060344664,0.09589223,0.004779293,-0.009089649,-0.089388475,5.8087626e-06,-0.031619657,-0.006288247,0.0590617,0.035222176,-0.047499422,-0.08826264,0.08782009,-0.08199162,0.13084972,0.042222504,0.044107135,0.0016183145,0.031646013,-0.0034883257,0.09491419,-0.025083141,0.0060739922,0.0970814,-0.027063845,-0.0840416,-0.09355061,-0.00038840875,0.038517963,-0.013260416,0.012407218,0.068306535,-0.021574756,0.056800365,0.031825952,0.016096834,0.012605669,0.037678666,-0.02981074,-0.099394985,0.01500739,0.008099736,0.008050525,0.045853194,-0.07199642,0.0021132454,0.0837379,0.044081196,-0.012642476,0.06371236,0.028875662,-0.0046571787,-0.03418518,-0.06471882,-0.0392666,0.05645452,-0.009141377,-0.025237318,-0.028118756,-0.06592499,0.028041644,-0.036298845,0.064651735,0.09823736,0.014454352,0.08362797,0.07280503,-0.043621596,-0.02965384,-0.012526133,0.08123542,0.011859694,0.006920188,-0.03704744,-0.110749185,0.075923875,0.07368933,-0.0005729782,-0.06237646,0.04283379,-0.034148958,-0.0270163,0.013821942,0.039006814,0.046448242,-0.0507399,0.017109726,-0.004805393,-0.06261343,0.10636542,0.008144427,-0.021596376,0.034378447,-0.024848152,-0.03461042,0.048222978,-0.0402923,-0.010628943,-0.043321893,-0.017485723,0.21066785,-0.078593545,0.059056956,0.056281235,0.024991168,0.023650723,-0.010596881,0.1262756,-0.07187924,0.033975028,0.040014453,-0.034124624,-0.105238415,0.00061173097,0.004542269,0.061427627,0.009218923,-0.047239676,0.026958115,-0.032541234,-0.0024037245,-0.027249806,-9.218231e-05,-0.07130264,0.051762793,-0.06263356,0.056263346,-0.042291407,0.020324394,-0.01241108,0.008914094,-0.007807826,0.05309143,-0.030497631,0.026840571,0.0417033,-0.09340419,0.02001261,-0.07268413,0.01086866,0.023109512,-0.072289616,0.020498345,-0.016983481,-0.08935932,-0.09019929,-0.0707053,0.03924863,0.07072335,0.02181225,0.12944502,0.027388962,-0.015652955,-0.015168154,-0.11985794,-0.031263035,0.029841678,0.061057135,0.025465203,0.057617743,-0.071501,-0.020674122,0.060682528,-0.046867356,0.07996722,-0.11257675,0.025255121,-0.0113364095,-0.030414334,0.007479878,0.04110359,0.07605912,0.03001965,-0.035332814,0.037412245,0.022083312,-0.006370354,-0.03562195,-0.04974798,0.011377361,0.05425544,-0.08080794,0.032442797,0.059712224,0.003484504,0.0352423,0.1181752,-0.009763543,0.022106787,0.020095458,-0.119450994,-0.034785006,0.045958444,-0.060528908,0.096698076,-0.017659044,0.03254662,-0.044566866,-0.042153724,-0.06502194,4.694241e-05,-0.029106041,0.00932057,0.016544206,-0.002247096,0.026572518,0.06318864,0.15793005,-0.07146195,0.027227648,-0.019348715,-0.083733626,-0.0657679,0.07166027,0.007644766,0.029834267,0.036401857,0.002998271,0.013436449,0.031088024,-0.025980745,0.037605032,0.027847419,-0.05684581,-0.05870274,0.044572745,-0.06421912,-0.07544471,0.0123940855,-0.021556607,-0.016605277,0.032540873,-0.0048336782,0.06589356,0.10875672,-0.044863887,0.02801716,0.055109408,-0.07686484,-0.016591467,0.024540298,-0.041202873,0.0049160155,0.013864385,0.0643093,-0.04881719,-0.0762542,-0.1004853,0.020599015,-0.02436403,0.11180104,0.15042652,0.056977946,0.007086759,0.023155393,-0.024734464,0.10087121,0.068308555,-0.038729843,-0.022319572,0.06020305,-0.012130752,-0.044009592,-0.042193882,0.11800557,-0.0035472864,0.017864987,-0.010236477,-0.049377654,-0.0947781,-0.08208644,-0.03324859,-0.034298033,0.04248155,0.009415969,0.07975683,-0.04468425,-0.024937082,0.004790161,-0.015135899,-0.01141705,0.07597246,0.054083303,-0.03014501,-0.050378405,0.11111453,0.042008735,0.036012642,0.013708369,0.048249323,-0.006621692,-0.021438448,0.038117852,-0.035995737,-0.07127851,-0.023611419,-0.036392655,-0.027269457,-0.009610709,0.08729587,-0.04774589,-0.005685857,-0.040697824,0.057619043,0.012051525,-0.028723866,0.033620328,-0.009242181,-0.05387012,-0.0057620513,-0.009883462,-0.008028652,0.0891304,0.0032364246,-0.06429819,0.008453023,-0.022875346,-0.031071676,0.0018585821,0.038729716,-0.05359815,0.0007967806,-0.033511598,-0.047530964,0.06021073,-0.034041636,0.016422816,0.030172726,0.043545227,0.06830442,-0.01727016,0.024439435,0.015020172,0.083137006,-0.08788667,0.10638174,0.07238905,0.03836177,0.03201689,-0.035490688,-0.07864963,-0.011286538,0.0136653185,-0.05490856,-0.015901031,-0.030162467,0.026152529,0.015240476,0.005795833,0.15253717,0.019728195,0.006141564,0.0025103416,0.050243113,-0.034388512,0.0034577958,0.02550955,0.0049030827,-0.028144615,0.014793469,0.01985707,0.062492643,0.013750481,-0.081008114,-0.07014885,-0.036239244,0.074767545,-0.048989918,-0.046933495,0.02912724,-0.0024349412,0.079780616,-0.062869824,-0.11185454,-0.06623325,0.023329012,-0.04255723,0.094247244,-0.039868336,0.0077714846,-0.0122685665,0.08690557,-0.012168121,-0.022910157,-0.028323852,-0.04523055,0.03601615,-0.021086551,0.07989267,-0.010852567,0.017744815,0.07469323,-0.0904822,0.078529276,0.06368941,0.011422106,-0.0878465,-0.121959515,0.086282656,-0.019713523,-0.054558408,0.07324307,0.10401087,0.008414367,-0.036973592,0.015056435,0.07918175,-0.14150897,0.049873248,0.025080152,-0.037589222,-0.081866995,0.08495076,0.082171254,9.057179e-05,0.01321677,0.03450311,-0.1236255,-0.05769101,-0.001465457,0.03489846,0.058788717,-0.015467445,-0.05233941,-0.0076647648,0.1089825,-0.07079871,-0.053458124,0.050244357,0.0338564,0.021726841,0.052079756,0.009770829,-0.012517573,0.08204429,-0.09679471,-0.044947907,-0.121169314,0.045962885,-0.012642892,-0.07498732,0.043187022,-0.020698363,0.0037641823,-0.0027296778,-0.08450469,-0.01699676,0.08299484,-0.058581013,-0.1142636,-0.0108523015,0.01269844,-0.012644999,0.03430748,-0.023214547,0.037803546,-0.037222315,0.008699673,-0.10921383,0.06833028,0.06109455,0.0057218913,-0.033582315,0.032263473,-0.007003928,0.0081809275,0.006660101,-0.042861413,-0.01061768,-0.010971937,-0.04980514,-0.0025126422,-0.07627205,0.07450892,-5.948994,-0.075290345,0.05123969,-0.03242907,-0.010100799,-0.021460462,-0.06122164,-0.05519317,0.114505,-0.034364108,0.076804966,-0.007094034,0.04136972,-0.028235635,0.0037284298,-0.0039564692,0.023725834,0.019208303,-0.0342335,0.067447215,0.058151033,-0.027777165,-0.00663436,0.12991007,0.011976906,-0.020639176,0.03475047,0.016770994,0.05616288,0.1286002,0.004431449,0.022205995,-0.06303629,0.09289451,0.037736427,0.13759802,0.055129126,-0.0014553469,0.17970711,-0.06363405,0.05670688,-0.08475444,-0.014489163,-0.00685642,0.005301353,0.002563512,-0.050005864,-0.082589455,0.021123521,0.02227196,0.027939674,-0.00875332,-0.015000259,-0.08055098,0.0712703,-0.014478879,-0.025493078,0.1124968,0.057995167,0.07573638,0.06568633,0.015851848,-0.05349374,0.047549147,0.0058630817,-0.03009949,-0.0665026,-0.009714033,0.002918021,-0.03962561,0.06434236,0.010563227,-0.004406925,0.07110776,0.033987414,-0.030590117,-0.0367639,-0.09023592,0.1406728,0.01898928,-0.12025224,0.08392813,-0.05891702,0.07850374,0.10644525,-0.029519856,0.06414267,0.08727695,-0.028314807,0.06352446,0.11455643,0.10498404,-0.015889393,0.0047166375,0.03013925,-0.021790234,-0.053296812,0.04262318,0.045928847,0.04072326,0.030140106,0.032722995,-0.02103037,0.059495788,0.01589837,-0.017454319,-0.04171694,0.04129072,0.030767344,0.08149704,0.021344718,-0.058606386,-0.055466067,0.010422896,-0.031220237,0.036624864,0.08319008,-0.11680499,-0.023943463,0.06726049
205KP-HG,0.0047911704,-0.047507238,-0.011874591,0.054704815,-0.07930675,-0.01781554,0.007246529,-0.056251116,-0.004587326,0.05806286,-0.0128484825,-0.015316137,0.12254892,0.09691468,-0.018701794,0.07140205,0.04250723,0.046789285,-0.003918169,-0.04982349,0.055361688,-0.06066204,0.046980627,0.029442634,-0.010700562,0.01658955,0.0002536542,-0.023516923,0.0016387443,-0.13617025,-0.004475871,0.0062418305,0.08013202,0.047945492,-0.004283694,0.009422395,-0.028886557,-0.010323223,-0.011198382,-0.0066389376,0.039184242,0.03871346,0.12957785,0.016845671,-0.039783154,-0.08256087,-0.07386597,0.028735578,0.010375102,-0.053816054,-0.02857422,0.049154796,0.059703648,0.04352527,0.028441127,0.009322093,0.009431043,0.027908232,0.026245989,0.016533945,-0.13662106,-0.0124071725,-0.049952433,0.07358803,-0.015153211,0.032376032,0.07169524,-0.06895275,0.06452307,-0.028593114,-0.004824491,-0.067500904,-0.010492334,-0.0763521,0.008913446,-0.023088688,0.013902588,0.15933526,0.015123553,0.055270247,-0.0055865375,0.007546987,-0.06910524,0.107179254,-0.021453492,-0.005640529,0.077144235,0.05552487,0.10253679,0.022314638,0.07257749,0.07273073,-0.0003066688,-0.041889336,-0.034099836,-0.03375083,-0.0030778865,0.01775371,0.07471463,0.036368795,0.055253703,-0.016493095,-0.033945765,-0.07041115,-0.016203262,-0.041189488,-0.04217182,0.01563564,-0.049754664,-0.024340209,-0.023408417,0.0009937263,-0.014519596,0.026111972,-0.016989337,0.019762162,-0.15688989,-0.09168304,-0.005361626,0.08141444,-0.032617897,-0.00233948,0.06314963,-0.009592045,-0.023227131,-0.06600763,0.0565749,0.016723089,-0.0831764,0.058912795,-0.011132381,-0.043149795,-0.028288778,-0.046146896,-0.0008738206,0.088420376,0.0034582482,0.108265586,0.02307322,-0.03625353,0.040432155,-0.08793554,-0.031732813,-0.0051898044,0.059005618,0.19932088,-0.06955551,0.049933586,-0.047489565,0.017005017,0.07833299,-0.0035782973,0.01334968,0.04468176,0.022607164,-0.14439423,0.08583212,0.07656713,0.023738228,0.049159847,-0.03627387,0.089526884,0.064599045,-0.05042319,-0.012970855,0.012348261,0.0799303,0.01776952,0.09115716,0.013462161,-0.02534217,-0.00818866,0.08060621,-0.049427167,-0.07477913,-0.010792236,0.0028551081,0.06274375,0.06652446,-0.0012480576,0.016404701,-0.0068159634,0.012004424,0.019188548,0.014645083,-0.05299266,-0.067760535,-0.0131781865,-0.066185504,-0.039662637,0.0016816426,0.10345128,0.03279817,-0.04435681,0.115860075,0.029948464,0.020358792,0.05922865,-0.0674514,-0.027132235,0.040608265,0.035001684,-0.066516176,0.050656877,-0.014738641,0.0076688845,-0.0025653627,-0.038239777,-0.11066514,-0.14335807,0.093040645,0.021157563,0.016780555,0.0718224,-0.07086718,-0.017241891,0.030705567,0.01736778,0.114283495,0.017064089,-0.027798716,-0.054588955,0.04382947,-0.061442204,-0.01404338,-0.07280175,-0.16681637,0.059653528,-0.13971323,0.05599849,0.099347435,0.01727438,-0.062306814,0.039203838,-1.2344936,0.035182156,0.18862957,0.01811448,-0.049106892,-0.058879767,-0.029572645,0.06164086,-0.021533187,0.024798177,0.03213884,0.045871325,0.05667483,0.023096692,0.023339171,0.025273087,-0.10851934,-0.00524713,-0.09970166,-0.037057716,-0.019310223,0.07296863,-0.009724121,-0.012823173,-0.038648646,-0.167309,0.09364537,0.037061088,0.057555325,0.07419843,-0.046472646,-0.05378492,-0.075429946,-0.06891367,-0.014577303,-0.0135233775,-0.029212935,0.055357184,-0.01141278,0.021387916,0.011612423,-0.011690887,0.034534097,0.034052517,0.017341293,-0.036633283,0.0077136764,0.013134633,0.111367665,-0.0055639558,0.010185737,-0.10286994,0.033127174,0.029641923,0.010945461,0.056674138,0.0027823811,-0.0048219496,-0.052482635,-0.08491245,-0.034534086,-0.015120142,-0.017303837,0.057392307,0.09661038,0.011085011,0.107751794,0.011965957,-0.087024756,0.047389727,0.017874932,0.014857678,0.012482248,0.048826832,0.005626801,-0.06726891,-0.032871954,0.01912887,0.029973676,-0.025167963,-0.00039550342,0.03159367,-0.043219477,-0.030978646,0.0130278,-0.019142393,0.023518464,-0.014796565,-0.035867944,-0.0044650445,-0.05343829,0.044933032,0.014191089,0.02013866,-0.051798612,-0.029446598,-0.047376744,-0.01928685,0.10544816,0.025510242,-0.12818648,0.0020575845,0.13192329,0.004312644,0.043093935,0.014133949,0.025815208,-0.038550988,-0.07363256,-0.022629164,-0.08749358,-0.059661217,-0.06257376,0.028415106,-0.016144566,-0.06838891,0.041556314,-0.032148942,0.017245816,-0.026468411,0.10721702,-0.015501014,-0.009071578,-0.0050315284,-0.050684016,0.009368803,-0.037895128,-0.016905142,-0.012245495,0.035623353,-0.004101603,0.02804319,0.10848647,-0.03060011,0.012206849,-0.05687809,0.08897054,0.0946177,-0.035455003,-0.029191576,0.035366833,0.066638626,-0.005230502,0.11421192,0.07850758,0.047248237,-0.013043026,-0.12958309,-0.06368021,0.0062385574,0.015957622,-0.02797848,-0.043565296,0.0027940965,0.013910476,0.031251743,-3.7975195e-05,-0.029031945,0.046578154,0.0823388,-0.032923862,-0.094025426,0.07191918,-0.007880507,0.011681218,-0.006534362,0.0026452383,-0.009156657,-0.046380017,0.070538394,0.022284064,0.0364877,0.03169944,0.004309781,0.02287988,-0.11727243,0.06535201,-0.0012570986,0.069071665,-0.06362726,-0.004782954,0.030999372,0.12342187,0.14382683,0.04884879,0.042576462,-0.034472518,0.03199363,-0.0049888915,0.11852627,0.0009067909,-0.024329787,0.023202537,0.051938348,0.07255437,0.023668362,-0.04936137,0.07039705,0.016293231,-0.000544379,0.029343167,0.03282221,0.0041626263,-0.015553977,-0.03830733,0.011895014,0.018231468,0.055367667,0.037341453,-0.11022684,0.026203925,-0.021074362,0.06721169,-0.037758484,0.034192614,0.04510531,0.057099495,-0.016224135,-0.0365569,-0.01080226,0.04261095,0.013333586,0.018097987,0.020200513,-0.025593938,0.16220607,0.05132146,0.013351135,0.025326617,-0.07957034,0.057688355,-0.027228875,0.037175786,0.05266851,0.0665383,0.07424123,-0.04505305,-0.01883172,0.06508941,-0.004363157,0.047188237,-0.056019824,-0.044380333,0.0025095043,-0.046077278,-0.027891017,-0.060198776,-0.036577825,-0.0065001305,-0.021023028,0.066751994,-0.033339933,0.00024898097,0.0021557084,0.05272105,0.031473357,-0.008137504,-0.038711105,-0.089530006,-0.003809222,-0.023067877,0.069171906,-0.0044705984,-0.027710794,-0.05306328,-0.035219226,-0.08751879,-0.08131961,-0.08758037,-0.0066693746,-0.052477658,0.04713395,0.014391919,0.1201092,-0.0267471,-0.007835691,0.031161895,0.0077856174,0.023907699,-0.068128124,0.0029702291,-0.04278512,0.01088323,-0.08796329,0.016777664,-0.07762527,0.009998432,-0.053853575,-0.013159004,0.039131034,-0.050451178,-0.12430358,0.0320524,0.010152293,0.0068848673,-0.041040387,0.017953867,0.09697606,-0.0029883548,-0.029368447,0.016238827,-0.011278534,0.050149128,-0.04823663,-0.17313077,0.04831498,-0.05655332,-0.017123245,-0.0013293318,0.11321652,-0.05254773,-0.03222646,0.06255402,-0.045152187,0.004162445,-0.003681922,0.0050889417,0.01536188,-0.124249354,0.14115648,-0.011888592,-0.067517966,-0.17892641,-0.023426432,0.00508141,0.024288509,0.006887306,0.03259135,0.017254435,-0.020385534,0.1684613,-0.06482466,0.049538504,0.06499782,0.08482568,0.030392729,0.0045922897,0.16179651,-0.033868484,0.025530327,-0.035392024,0.11444627,0.006216853,0.052166924,0.04815088,-0.019825961,0.040693924,-0.052187886,0.014230533,0.0780107,0.01728814,0.06686608,0.019363962,0.019944109,-0.03530559,0.09070437,0.0233292,-0.05883095,0.06420245,0.066939026,0.0956198,0.06261912,-0.043932498,0.001935448,0.062084094,-0.062338047,0.016467623,0.0035508957,0.019172523,0.019601163,0.025622819,0.08374956,-0.010407428,-0.0051400876,-0.0365061,0.0013618334,0.017520284,0.013932135,-0.033968437,-0.03795647,0.01052631,-0.003601766,-0.0026141433,0.014999439,0.047353968,0.0003994362,-0.0060935807,0.011420143,-0.027428303,-0.042218875,-0.0049163625,0.102548085,0.028111909,0.0047500846,0.06750366,-0.030266067,0.010560368,0.02170363,0.012975973,-0.015309926,0.054947246,0.019199716,-0.0034594021,0.010741152,-0.033406336,-0.039496023,-0.13224438,-0.040772505,0.04383813,-0.0014385411,0.0612063,-0.038898572,0.045897353,-0.015688669,-0.04206663,0.016308198,-0.011103764,0.16809383,0.043471746,-0.018370654,0.01646841,-0.0015032795,0.029128412,0.071505696,-0.0786408,0.13045633,-0.0043338193,-0.0007775697,-0.06605236,0.06324425,0.07462263,-0.0013371693,-0.018381622,0.010824297,0.043124124,0.04062747,0.025885273,-0.079196386,0.015740087,0.021495488,-0.0038794172,-0.01238889,-0.02496597,-0.003465624,-0.009400432,-0.009093447,0.032830074,-0.0071855113,-0.069354735,0.16069575,0.07418677,-0.08538627,0.0006819705,0.08686206,0.008350054,-0.0042811977,-0.08313144,-0.0020117713,-0.04170869,0.0086931335,0.05891737,0.016869899,-0.06140146,-0.0771189,0.085798666,-0.063645184,0.13876738,0.05052304,0.038401023,-0.023720713,0.031412408,0.01425248,0.091887206,-0.016329316,0.0065007857,0.09791098,-0.022265678,-0.086554036,-0.0880857,-0.0052914317,0.050166033,-0.026402557,0.01759389,0.057785437,-0.013398301,0.06283996,0.040986847,0.018548807,0.009439128,0.031143721,-0.034055278,-0.096094,0.018982258,0.0061124684,0.005137622,0.032038942,-0.059037823,0.0009493542,0.08846155,0.041013252,-0.026287233,0.05979175,0.0577389,0.0064058676,-0.019440405,-0.060620982,-0.022020645,0.06443827,-0.016850306,-0.024138981,-0.034040622,-0.06485302,0.025172703,-0.024675706,0.07554114,0.107464775,0.0143551165,0.0905154,0.075917006,-0.050584167,-0.023638777,-0.0048781685,0.06856575,0.0021317992,0.008531097,-0.033749573,-0.107194975,0.07526244,0.07287777,-0.0023261136,-0.072658956,0.033416215,-0.041690923,-0.025220338,0.0211549,0.037461773,0.04264619,-0.03956585,0.021326622,0.0030836777,-0.06148643,0.09562227,0.0042124097,-0.02883874,0.036570475,-0.026367966,-0.014914417,0.041831728,-0.032797914,-0.0165964,-0.029520797,-0.019076142,0.19820927,-0.06978215,0.052402325,0.04861407,0.020737307,0.039968055,-0.0037890177,0.1290301,-0.06434621,0.010422998,0.036019642,-0.039335594,-0.09520814,-0.005449143,-0.0013312093,0.05525683,0.014622997,-0.060448136,0.02790271,-0.020477273,-0.00066815317,-0.034512118,-0.0012897304,-0.07110697,0.047754344,-0.06696986,0.05756937,-0.04070146,0.029840538,-0.012327783,0.007566928,-0.0109522175,0.0556835,-0.043754026,0.02192695,0.046556354,-0.09853738,0.0028778194,-0.07794555,0.010039194,0.029167715,-0.079971865,0.022096563,-0.013760635,-0.08267803,-0.080292195,-0.055952113,0.041376606,0.059819657,0.009890647,0.113858186,0.031324733,-0.020829868,-0.03637415,-0.11388728,-0.033272192,0.027373327,0.06149735,0.033046883,0.061401706,-0.06179595,-0.023306306,0.057726238,-0.02172841,0.07193559,-0.09690035,0.015881794,-0.008264553,-0.015796619,0.014359572,0.057937544,0.07978431,0.025342146,-0.033239894,0.039739907,0.026144939,-0.0027125587,-0.024353031,-0.04500297,0.014997057,0.044500664,-0.07763743,0.023947667,0.055529583,4.0619943e-05,0.020935707,0.12930469,0.004317006,0.040627584,0.031645965,-0.12246141,-0.030413337,0.06841047,-0.061716046,0.080265604,-0.013113408,0.04220514,-0.052645527,-0.05052609,-0.06664997,-0.0017258624,-0.031926572,0.005327261,0.001528328,-0.0019208888,0.031038191,0.056949437,0.13769738,-0.07495416,0.03342224,-0.027994812,-0.058664814,-0.05551617,0.061357148,0.0031823665,0.03144303,0.035686933,-0.0016940656,0.00786243,0.022079492,-0.020961432,0.038346652,0.007367732,-0.042077534,-0.060550418,0.037112225,-0.05255386,-0.07514222,0.008953544,-0.019114332,-0.011419888,0.025351606,-0.0022969588,0.056352463,0.11094293,-0.056846976,0.0345098,0.04939179,-0.07655743,-0.0065694773,0.026246222,-0.032742202,0.0077718296,0.0012476451,0.069420844,-0.051576182,-0.06618231,-0.093395896,0.023614502,-0.032693535,0.11343368,0.14259848,0.06295487,0.008573073,0.033613343,-0.011194966,0.10133928,0.0644879,-0.03919432,-0.03075741,0.0526199,-0.015747214,-0.052637234,-0.03074453,0.11488562,-0.015649961,0.011860457,-0.008756664,-0.048921876,-0.07393415,-0.06680308,-0.03604603,-0.03145991,0.045951884,0.01668333,0.07261419,-0.04426329,-0.016846767,0.00043528434,-0.0064115482,-0.0065131867,0.09329799,0.030169401,-0.024684457,-0.04180375,0.10666744,0.048016246,0.03316858,0.009999727,0.03911311,-0.0009210529,-0.02827405,0.039057318,-0.03630372,-0.06098496,-0.029249238,-0.027334077,-0.025495121,-0.017001728,0.083665356,-0.047422484,-0.007697473,-0.05206674,0.051662575,0.0050419727,-0.031195018,0.042701583,-0.0150438445,-0.050230157,-0.0023484416,-0.007774106,0.0035568657,0.08116546,0.0040028426,-0.05376716,0.0066850637,-0.0060314904,-0.016962834,0.0024863651,0.022133386,-0.058179848,0.01037441,-0.039955232,-0.036496304,0.06876763,-0.022102252,0.014087374,0.037723504,0.026867725,0.053478442,-0.016371483,0.03423318,0.015987715,0.07636288,-0.093288355,0.11323484,0.05992502,0.033897936,0.04794558,-0.042004034,-0.065153725,-0.018305175,0.0034405221,-0.036927756,-0.025953969,-0.037180755,0.03119172,0.014670355,0.00014657568,0.15509821,0.027772026,0.020027125,0.0031635114,0.043264598,-0.034362942,0.009458389,0.028019087,0.0023246678,-0.029933099,-0.0011895552,0.029172642,0.041586544,0.017324395,-0.07481175,-0.061922118,-0.031110955,0.06326843,-0.051947128,-0.04349217,0.03691469,-0.010245883,0.09904513,-0.057786167,-0.09482651,-0.05675127,0.015223548,-0.034096424,0.097420245,-0.030773593,0.0016587989,-0.0132822,0.07434715,0.0067660725,-0.01920211,-0.008941324,-0.031930197,0.037136286,-0.030230463,0.08691569,-0.012048955,0.010534416,0.06498458,-0.08182121,0.09570112,0.06411114,0.016080469,-0.08976897,-0.114794016,0.09012815,-0.015606011,-0.056308303,0.08174625,0.07685987,0.00789607,-0.042705193,0.015562091,0.07187118,-0.14224337,0.042068962,0.023799505,-0.034107484,-0.084063135,0.084079996,0.07228013,-0.0068359743,0.0060839695,0.039991155,-0.11791321,-0.05684851,-0.0030401265,0.026321786,0.048359286,0.0017086719,-0.053169712,0.0016361539,0.10844011,-0.06979499,-0.06002529,0.05267341,0.059161365,0.044796146,0.05048782,0.0037440537,-0.0077040815,0.08401337,-0.07562631,-0.024882454,-0.1209616,0.040707275,-0.01182742,-0.06292328,0.044666912,-0.031940117,0.025090074,0.0024319692,-0.103851706,-0.0024689909,0.07214543,-0.047891703,-0.113008104,-0.01639623,0.007884171,-0.010191257,0.002704465,-0.019992543,0.03961876,-0.035640307,0.0066658626,-0.10737303,0.059456196,0.055470016,-0.0068015633,-0.024617264,0.018114945,-0.0037053046,0.009451106,-0.00015173439,-0.033510644,-0.0038103557,-0.016969847,-0.0632304,0.0031595086,-0.08676567,0.06431134,-6.1706095,-0.0500007,0.03357734,-0.030647721,-0.006244204,-0.022141352,-0.052458815,-0.05088635,0.09778398,-0.02505845,0.07069805,-0.0142870955,0.052271232,-0.028444132,0.007181011,0.007979267,0.035364244,0.01969916,-0.018689983,0.070660956,0.06008522,-0.017005377,-0.020741878,0.12279948,0.01611658,-0.025106601,0.023102503,0.008577645,0.047436886,0.1322882,0.023076423,0.018350385,-0.05139545,0.08169263,0.021799624,0.14752582,0.039726198,-0.00768119,0.17491503,-0.06604168,0.03680983,-0.07505372,-0.013606062,-0.018625474,0.017122723,0.0026188744,-0.045353696,-0.07934538,0.02566879,0.03377774,0.03974521,0.00095252256,-0.008690817,-0.08972232,0.0587539,-0.012245502,-0.023860307,0.11310886,0.048333205,0.087598994,0.07100144,0.014528506,-0.045134634,0.05870401,-0.0053607533,-0.02345218,-0.051347747,-0.0057398323,0.0060529797,-0.049520627,0.06700527,0.022090357,-0.0068826047,0.0709362,0.028647969,-0.029545281,-0.039891183,-0.084153004,0.15321374,0.021083886,-0.1062547,0.074841164,-0.050546337,0.07456344,0.08694952,-0.033611137,0.052308496,0.10623714,-0.02534126,0.070829205,0.11713595,0.096034676,-0.032545604,0.0059316405,0.021587007,-0.011759997,-0.061898455,0.046140935,0.042676922,0.04118074,0.035609625,0.037875134,-0.017657617,0.05709676,0.016984906,-0.011870212,-0.045440655,0.034014538,0.032336608,0.07438837,0.034301206,-0.06751111,-0.06175767,0.0147799365,-0.01605624,0.05491774,0.08895069,-0.11531435,-0.0087543065,0.06423765
HGV2_429,0.0044521433,-0.0704997,-0.018181505,0.046759002,-0.073430896,-0.008258166,0.033305265,-0.1116907,-0.014179932,0.034313455,-0.005623634,-0.022239473,0.1109266,0.11690398,-0.028498212,0.08078773,0.041350115,0.022513239,0.003453016,-0.0054080826,0.05831608,-0.044114973,0.037818007,0.007147423,-0.020061191,0.022660425,0.018566936,-0.02060163,0.004401525,-0.13531348,-0.030322883,0.024878103,0.08983773,0.03056972,0.00035388395,0.028649433,-0.019252032,0.00517301,-0.045187913,0.01656111,0.013727192,0.00032338774,0.14072093,0.0074051637,-0.034637176,-0.06287119,-0.051546432,0.07508629,0.0022809207,-0.04856583,-0.06283228,0.0353877,0.04164774,0.04745242,0.0184758,-0.0004742287,-0.011075987,0.010053238,0.04487796,0.02318432,-0.11214183,0.0057033757,-0.03729924,0.07097272,-0.0018793102,0.038722984,0.07626059,-0.045131367,0.09663526,-0.049917534,-0.005570054,-0.09517053,0.004110878,-0.03798442,0.004455357,-0.00074368156,0.03864664,0.16583838,0.019371161,0.059270937,-0.0057304436,0.01848486,-0.08651912,0.09115487,-0.03934893,-0.009099382,0.07371528,0.047033656,0.079658054,0.015294082,0.07911031,0.087368876,0.01685179,-0.04188285,-0.026039012,-0.048274767,-0.013738156,0.016457587,0.082423255,0.028736783,0.053336773,-0.034656726,-0.036530472,-0.052337237,-0.0503476,-0.045984246,-0.01049177,0.009806722,-0.03661324,-0.03844759,0.017706223,-0.018125366,-0.04386771,0.028426398,-0.004433204,0.019085776,-0.14640383,-0.062387172,0.0007384771,0.0708168,-0.04972533,0.0021322551,0.060843877,0.0056267823,-0.057393923,-0.04281383,0.059786074,-0.006895878,-0.07737207,0.05560494,-0.034298297,-0.021108862,-0.025866317,-0.071809135,0.020377163,0.12646863,0.026675995,0.12425643,0.018711857,-0.043890297,0.042711556,-0.06583728,-0.02645652,-0.014891606,0.06304137,0.21230716,-0.059086975,0.044237122,-0.037500925,0.028694097,0.09372385,-0.028647542,0.018714372,0.025492748,0.0075782994,-0.11977224,0.059407916,0.07843292,0.035413567,0.032004897,-0.045534518,0.0796458,0.032165352,-0.0784844,0.00070990575,0.036756974,0.092241645,0.022905009,0.07541104,0.024481028,-0.029843915,0.015198754,0.08867012,-0.058873013,-0.06385283,-0.030112524,0.002727652,0.044144955,0.07333069,0.011596169,0.022294309,-0.01711899,0.02153142,0.025033573,-0.007125779,-0.061565123,-0.059249986,-0.005889804,-0.05547015,-0.044992052,0.013302935,0.09550269,0.034424044,-0.053559646,0.13660033,0.042177714,0.023261338,0.04525996,-0.101166666,-0.009752663,0.04726134,0.06383509,-0.07497243,0.058585674,-0.008872264,0.02355912,-0.010804502,-0.039839104,-0.14243352,-0.13256246,0.08767872,0.034623545,0.040851153,0.0731694,-0.08853857,-0.00507818,0.023781331,-0.0061610835,0.101867676,0.0130307395,-0.012330851,-0.052199043,0.08288739,-0.07049678,0.005550917,-0.052839316,-0.16458116,0.0533625,-0.13589108,0.053869113,0.091705814,0.0005042808,-0.08468465,0.02140155,-0.7486108,0.041489214,0.153212,0.04881946,-0.0672335,-0.10572647,-0.025752299,0.062942624,-0.018807705,0.029539142,0.0015501818,0.025064167,0.048604056,0.021449585,0.014827237,0.026218338,-0.14892745,0.0012900822,-0.06341986,-0.016413186,-0.04143335,0.060273904,-0.0012305211,0.0011363038,-0.029793205,-0.18341227,0.09782069,0.030486174,0.017832093,0.079085864,-0.051394712,-0.050007425,-0.06432889,-0.070514284,-0.0032502017,-0.012872372,-0.0035734859,0.049077474,-0.033448618,0.0032936167,0.0030981433,-0.0048478893,0.061964594,0.058370564,0.008620281,-0.032220565,0.006288986,0.009580217,0.111325294,0.0048497654,0.028176645,-0.13723575,0.013220898,0.037663262,0.057448503,0.08436532,-0.009198694,-0.008450926,-0.051768683,-0.088607095,-0.046614792,-0.009317007,-0.012062719,0.09304449,0.09969905,0.018259358,0.10517105,0.040031906,-0.09181031,0.047657985,0.022492686,0.021270998,-0.015811643,0.04463506,-0.0040148967,-0.07243325,-0.0411022,-0.007199519,0.020681245,-0.016157102,0.016789876,0.011864418,-0.033852354,-0.026856452,-0.026134592,-0.013422912,0.016116211,-0.009484293,-0.011910537,-0.003195164,-0.05736523,0.0057319836,0.008169639,0.02372992,-0.08411213,-0.042428672,-0.019892778,-0.012642508,0.105805084,0.037998185,-0.13074894,0.0008062492,0.1177177,-0.018378973,0.058782097,0.00635814,0.032321095,-0.039922964,-0.088916294,-0.02554378,-0.10094863,-0.0694813,-0.040716704,0.0074807582,-0.022639928,-0.06356743,0.03472237,-0.03147053,0.01585034,-0.0403521,0.124320336,0.001163924,-0.009793462,-0.03369154,-0.029411579,0.01652256,-0.025043927,-0.014635649,-0.024237756,0.059610285,-0.00671142,0.015344054,0.10700743,-0.031741843,0.040201437,-0.07119355,0.12287968,0.082217745,-0.0162134,-0.035623558,0.045614082,0.09235715,0.0037206253,0.10489067,0.097201645,0.036672454,-0.012840414,-0.09333372,-0.053331707,0.018221792,0.03282316,-0.014703065,-0.044982534,-0.004466518,0.010903045,0.023852544,-0.015815262,-0.012421482,0.006990092,0.07244401,-0.034669735,-0.07320351,0.10183354,0.02383591,0.03445077,-0.03320238,-0.028238136,-0.018138684,-0.05557262,0.08467704,0.009150442,0.04111305,0.009963558,-0.04451887,0.00987047,-0.07415366,0.053418588,-0.003314793,0.06724652,-0.05522929,0.013229296,0.041936006,0.09962204,0.121654764,0.082843855,0.013120871,-0.05477331,0.029022915,-0.033482328,0.0848151,-0.018372547,-0.020884505,0.013763328,0.051050454,0.10344611,0.036010887,0.00082988385,0.049254384,0.011842001,0.015547727,0.00078890007,0.035068512,-0.01181649,-0.002651577,-0.04583238,0.009712148,0.008133834,0.046415612,0.037431285,-0.10430431,0.062013276,-0.056335423,0.04296355,-0.036364663,0.0596033,-0.01690526,0.053740203,-0.0030941372,-0.015309386,0.0065193577,0.03343889,0.028222715,0.05735869,0.04823487,-0.029512987,0.1885677,0.07373733,0.016367327,0.01811574,-0.058850672,0.02956568,-0.051036537,0.028419133,0.037736017,0.069792904,0.05512556,-0.038362842,-0.0035781576,0.08300813,-0.007726501,0.04090257,-0.052497193,-0.04586365,-0.0044275336,-0.043901555,-0.032487575,-0.040733725,-0.038549338,-0.018883679,0.010432993,0.02971424,-0.01273951,-0.010787874,0.0086875055,0.043296825,0.03483221,-0.022247044,-0.028734732,-0.08294745,0.011355762,0.0056317723,0.08627205,-0.013583307,-0.039129756,-0.03494671,-0.022428175,-0.07161454,-0.098944,-0.07527267,-0.022598559,-0.057319015,0.032757115,0.014207963,0.14138445,-0.012706345,0.024999347,0.02917087,-0.013754949,-8.0987345e-05,-0.07116871,0.032035932,-0.030800913,0.015005498,-0.10451172,0.04286465,-0.078852795,0.014590161,-0.047837857,-0.0073404745,0.024576925,-0.035612818,-0.13496588,0.038983963,0.039754447,-0.004743431,-0.0639992,0.03681889,0.1092271,0.026385015,-0.019057257,-0.0037645213,-0.016685437,0.057073012,-0.047374304,-0.16708581,0.0306129,-0.03481951,-0.04714466,0.017515486,0.09126814,-0.05056183,-0.0387398,0.046727017,-0.027271599,0.012976906,-0.015307277,0.012671672,0.035297662,-0.12633601,0.17600678,-0.009708876,-0.09570145,-0.19175926,-0.03194286,0.005826026,0.016804252,0.02049315,0.05121326,0.008537674,0.0042735008,0.1971705,-0.069998294,0.056056883,0.04921297,0.0710132,0.013367846,-0.0058564236,0.17745346,-0.034424573,0.00042192155,-0.043627374,0.11574472,-0.011226864,0.056419224,0.04070418,-0.017876692,0.015494348,-0.041874316,0.015436407,0.11869204,-0.0023551076,0.06330831,0.027904669,0.017251922,-0.062529325,0.08189202,0.012416233,-0.061054174,0.07975247,0.055961348,0.10531828,0.048426423,-0.04482695,0.0087476615,0.055768285,-0.07252728,-0.009389602,0.011556439,0.0039647482,0.011149955,0.0036868118,0.06732989,-0.025400115,0.009775538,0.00043015787,0.007155355,0.024587559,0.008436018,-0.043869037,-0.051522978,0.024046866,-0.019730939,0.016609995,0.0043710116,0.043518063,-0.0061100493,-0.024771426,0.016267205,-0.043609407,-0.02313608,-0.011433182,0.12525737,0.032169893,-4.8019923e-05,0.10379026,-0.03003891,0.002969171,0.027205922,-0.016917814,-0.00014031772,0.047478173,0.005671349,0.0016701305,-0.0057411296,-0.038325053,-0.023903448,-0.12998109,-0.061804283,0.06403851,-0.01992851,0.053462405,-0.06443406,0.078953154,-0.015919019,-0.04757943,0.017252916,-0.0123641025,0.19232523,0.04256177,-0.029703941,0.02432897,0.015817858,0.029730363,0.06692891,-0.103720695,0.14045592,-0.010486292,0.009352986,-0.060155965,0.04610832,0.057147335,-0.046680104,-0.03867605,0.016247626,0.061580893,0.024619319,0.032380287,-0.06264141,0.01676266,0.0042963014,0.019449504,-0.0134932995,-0.029366141,0.0142459925,0.0075995466,0.0022669611,0.005643574,-0.021297319,-0.06763318,0.19102292,0.085380726,-0.09726435,0.014247874,0.09208331,-0.009160758,-0.011842843,-0.06640166,0.017802134,-0.02517506,-0.011080697,0.047059357,0.050774734,-0.046821926,-0.082193516,0.07572345,-0.08998215,0.12566993,0.03773282,0.046458066,0.01930286,0.018996526,-0.009339254,0.098943725,-0.03400707,0.0146730095,0.080243535,-0.019024957,-0.10361737,-0.074755155,0.012188203,0.04636728,-0.018332351,0.021211628,0.07969327,-0.04334807,0.051160473,0.033234965,0.0115444865,0.035131115,0.030056207,-0.014394054,-0.0838744,0.023837455,-0.0029130415,0.008482874,0.050896656,-0.06497035,0.010731479,0.09298539,0.025187146,-0.01207034,0.056736857,0.030084403,0.0051275925,-0.063081905,-0.061140046,-0.043397218,0.05366851,-0.0050908267,-0.007119161,-0.026454885,-0.07634224,0.004786321,-0.04607849,0.04408277,0.07518473,0.020846935,0.08826917,0.058602158,-0.0494579,-0.024454756,-0.021207668,0.06904911,-0.0061005475,0.012663938,-0.055540152,-0.13962299,0.07315853,0.071647264,-0.0067662485,-0.073849544,0.044038873,-0.043690637,-0.029280921,0.013055359,0.0594054,0.049837276,-0.033962175,0.0007955567,-0.0010501724,-0.07579533,0.113470495,0.017157767,-0.0054696803,0.051725198,-0.04183274,-0.02154967,0.07599422,-0.037462726,-0.010471306,-0.05894884,-0.026067613,0.1986667,-0.07293671,0.048670053,0.043481015,0.044263106,0.048693947,-0.03985234,0.116415165,-0.08747026,0.016251838,0.03821778,-0.0334692,-0.08905874,0.015409468,0.017199242,0.0752432,0.016711608,-0.0151460655,0.0163585,-0.055564936,0.012839237,-0.03365754,-0.0069732107,-0.06647148,0.03815211,-0.06451834,0.0488419,-0.029663201,0.008470672,-0.006950149,0.002929181,-0.00059777603,0.072228916,-0.035543773,0.04807798,0.022162408,-0.06584844,0.026941435,-0.098463126,0.025568403,0.012954049,-0.080498494,0.02605625,0.01270741,-0.06945686,-0.078953736,-0.056399174,0.033764064,0.06515886,0.040854022,0.12495312,0.030719526,-0.015283302,0.02045897,-0.118699856,-0.03228507,0.028272545,0.049198434,0.02353032,0.039146513,-0.07657084,-0.016429918,0.046082772,-0.042233042,0.07336258,-0.09586367,0.026179988,-0.015135725,-0.03587065,0.013142966,0.052439414,0.066261135,0.022786312,-0.033645257,0.0350196,0.016637105,-0.003968026,-0.02282491,-0.060675975,0.022720188,0.055093773,-0.08173127,0.022249743,0.05429154,-0.006489467,0.04469856,0.13720256,0.014321616,0.003347048,0.01629905,-0.021251008,-0.008394793,0.046191208,-0.04523935,0.12800463,-0.019310785,0.030304318,-0.023783593,-0.04095363,-0.07745864,-0.010899546,-0.031034555,0.013677521,0.050554115,-0.007201952,0.015862096,0.058468405,0.15033607,-0.0807073,0.03527336,-0.009032236,-0.12069957,-0.07679111,0.07821595,0.013959996,0.0137291085,0.04275941,-0.0026569546,-0.0004527343,0.038722068,-0.043523204,0.03422925,0.035274696,-0.05801638,-0.05856993,0.052173022,-0.050570935,-0.06704658,-0.0014595403,-0.03458047,-0.035192333,0.016012646,-0.004177505,0.072886795,0.07150458,-0.040058944,0.022951126,0.072161496,-0.061022434,-0.019387975,0.023093514,-0.039024938,0.019571606,0.0010393086,0.066054165,-0.04921109,-0.08645745,-0.11206807,0.0050423658,-0.02852709,0.1292393,0.15753344,0.044579815,0.0039332495,0.0037924307,-0.0397815,0.12882061,0.07134127,-0.039374456,-0.012491397,0.063595116,0.013863152,-0.051199634,-0.0249838,0.11944446,-0.0013410433,0.046370756,0.011040205,-0.04117212,-0.10455077,-0.099607885,-0.013909985,-0.021052357,0.047042865,0.015550263,0.0834528,-0.062255025,-0.037331685,0.0051212194,-0.0047193305,-0.02394675,0.051507235,0.04873979,-0.030630585,-0.063707575,0.08457562,0.025028251,0.014093968,0.016333682,0.04014405,0.004586963,0.00015865825,0.04348659,-0.03911798,-0.0854065,-0.026578186,-0.030592415,-0.030573322,-0.008721061,0.075641215,-0.06256089,-0.023400977,-0.043337133,0.07555057,0.01580505,-0.036333054,0.028237324,0.0030189487,-0.05210531,-0.020730305,-0.024923926,-0.029766861,0.097187854,0.02053526,-0.07463641,-0.009017089,-0.025972687,-0.027606329,0.006699811,0.059074666,-0.050458863,-0.011602053,-0.02141281,-0.027832003,0.052517977,-0.03259615,0.038552295,0.022815067,0.034620162,0.048965134,-0.028421415,0.0357487,0.0172496,0.08235966,-0.08214084,0.10598235,0.06399199,0.030633694,0.01761319,-0.04611155,-0.08718501,-0.017731939,0.00013612071,-0.07888628,-0.0110293785,-0.015555134,0.046176586,0.050998747,-0.024404213,0.14717849,0.014659654,-0.0005116778,0.016262744,0.041663036,-0.06357932,0.018288735,0.034688123,0.004447038,-0.040516224,0.008949439,0.044466525,0.06047716,0.023803286,-0.05992533,-0.078999124,-0.015766477,0.069936365,-0.015551729,-0.059459917,0.018547736,-0.0035600194,0.0783827,-0.05896395,-0.10578858,-0.058045253,0.044884034,-0.029109022,0.081587456,-0.051744487,0.00019467808,-0.013692705,0.086274624,-0.031413812,-0.033135444,-0.027354855,-0.054140087,0.04326736,-0.030665979,0.05722336,-0.02211611,0.0144518195,0.068902604,-0.104696065,0.08108713,0.05244561,0.009314421,-0.07649043,-0.108609386,0.07485598,-0.010745614,-0.053007122,0.06517188,0.10722081,0.014650904,-0.030709794,0.029622115,0.0984841,-0.13196513,0.04830309,0.04003492,-0.030638885,-0.07644058,0.08190843,0.11468831,-0.012574103,-0.013988063,0.039901722,-0.11816428,-0.044760216,-0.013318333,0.048951045,0.0831094,-0.036968555,-0.077217326,-0.039175924,0.09506433,-0.04866048,-0.05963511,0.05848749,0.019487193,0.019763038,0.07516678,0.0024574385,-0.041840583,0.07623439,-0.10259268,-0.032450333,-0.12763564,0.032259714,-0.026452051,-0.0796846,0.06027317,-0.005440941,-0.0046590464,-0.0005262932,-0.065698504,-0.006962534,0.08712591,-0.031243203,-0.122528546,-0.036345713,-0.004372307,-0.00104408,0.053013034,-0.022897067,0.010882779,-0.03253079,0.0027314336,-0.092544146,0.06792909,0.05891416,-0.009470592,-0.04254718,0.044901837,-0.02067762,-0.0058459896,0.0118615385,-0.017059952,-0.009207153,-0.0030183706,-0.03958297,-0.005156454,-0.07200856,0.082283966,-5.8433437,-0.1296288,0.04746847,-0.029002927,0.006728247,-0.01643838,-0.06260452,-0.05870799,0.12180174,-0.046044413,0.06629467,-0.025500018,0.048556816,-0.018839085,-0.024603056,0.008503264,0.011186023,0.008154695,-0.031083537,0.074031025,0.054349832,-0.01215166,-0.008710244,0.15309632,0.004448983,-0.0028342272,0.040775597,0.019091778,0.052615512,0.10958269,-0.0023343964,-0.005151707,-0.033592388,0.098168686,0.05524016,0.13157976,0.046324167,0.0012411065,0.16229662,-0.07459443,0.08262646,-0.117171,-0.01302461,0.0035182473,0.022586288,0.009988829,-0.071992554,-0.06787821,0.031155508,0.015619623,0.037665743,-0.013200179,-0.015220189,-0.071611494,0.05649083,-0.0109862005,-0.014877264,0.107050925,0.044017132,0.080090955,0.030381074,0.009633273,-0.041580126,0.03510036,-0.0033313916,-0.04247441,-0.08808345,-0.03499252,-0.008479855,-0.041146897,0.06898121,-0.00044897245,-0.0008253022,0.057317868,0.02464635,-0.023318877,-0.033748582,-0.075177856,0.13458365,0.026099352,-0.10301936,0.074927956,-0.053942833,0.07918723,0.10501496,-0.016279979,0.05500158,0.07973959,-0.036346234,0.063555166,0.12347072,0.081927165,-0.03564302,0.0033027735,0.041856173,-0.03014464,-0.041079182,0.02564252,0.05602543,0.0520335,0.04031178,0.040526796,-0.01351608,0.07190346,0.038889565,-0.019850329,-0.031236563,0.036916003,0.024967449,0.064691946,0.009984803,-0.076097704,-0.06932679,-0.016347932,-0.026355451,0.016029535,0.086768225,-0.14307733,-0.0061979024,0.0635749
